
\data\
ngram 1=40606

\1-grams:
-2.785553	!
-5.583513	$.027
-5.407422	$.07
-5.884543	$.076
-5.884543	$.09
-5.884543	$0.9
-5.039445	$1
-5.106391	$1,000
-5.884543	$1,200
-5.884543	$1,276
-5.884543	$1,390
-5.884543	$1,500
-5.884543	$1,500,000
-5.884543	$1,961,000
-5.884543	$1.0
-5.884543	$1.1
-5.884543	$1.6
-5.884543	$1.7
-5.583513	$1.8
-5.583513	$1.9
-5.583513	$10
-5.884543	$10,000
-5.884543	$10,000,000
-5.884543	$10.1
-5.884543	$10.3
-5.884543	$10.8
-5.282483	$100
-5.884543	$11
-5.884543	$11,900,000
-5.884543	$12.1
-5.884543	$125
-5.884543	$14
-5.884543	$14.00
-5.884543	$148.50
-5.407422	$15
-5.884543	$16.00
-5.884543	$16.80
-5.884543	$17,000
-5.884543	$17,000,000
-5.884543	$18.9
-5.884543	$184
-5.884543	$187
-5.884543	$19.3
-5.407422	$2
-5.884543	$2,000,000
-5.884543	$2,323,867
-5.884543	$2,412,616
-5.884543	$2,461,000
-5.884543	$2,490
-5.884543	$2,500
-5.884543	$2,557,111
-5.884543	$2.09
-5.884543	$2.82
-5.583513	$20,000
-5.884543	$20,000,000
-5.583513	$200
-5.884543	$200,000
-5.884543	$222
-5.583513	$23,000,000
-5.884543	$230,000
-5.884543	$24,926,615
-5.884543	$26.5-billion
-5.884543	$27.50
-5.884543	$28.00
-5.884543	$29
-5.884543	$297
-5.884543	$3,000
-5.583513	$3,500,000
-5.884543	$3,825
-5.884543	$3.11
-5.884543	$30
-5.884543	$30,000,000
-5.884543	$300
-5.884543	$300,000
-5.884543	$31,179,816
-5.884543	$32,000
-5.884543	$350,000
-5.884543	$380
-5.884543	$395,000
-5.407422	$4
-5.884543	$4,000
-5.884543	$4,000,000
-5.583513	$4,500,000
-5.884543	$4,753
-5.884543	$4.9
-5.884543	$40,000
-5.884543	$44.3-billion
-5.884543	$450
-5.884543	$450,000
-5.583513	$5
-5.884543	$5,000
-5.583513	$5,000,000
-5.884543	$5.4
-5.583513	$50
-5.282483	$500
-5.282483	$5000
-5.583513	$538
-5.884543	$56
-5.884543	$581
-5.884543	$6
-5.884543	$60,000
-4.9303	$600
-5.884543	$625,561
-5.884543	$63.8
-5.884543	$65,000
-5.583513	$7
-5.884543	$7,000,000
-5.884543	$70,000
-5.583513	$700
-5.884543	$720
-5.884543	$740
-5.884543	$75
-5.884543	$75,000,000
-5.884543	$75-billion
-5.884543	$79.89
-5.884543	$8
-5.884543	$8,313,514
-5.583513	$800
-5.884543	$85,000
-5.884543	$9.2
-5.884543	$94
-3.945024	&
-3.58569	'
-2.100353	''
-5.583513	'13
-5.884543	'20s
-5.884543	'25
-5.583513	'30s
-5.884543	'31
-5.884543	'38
-5.407422	'48
-5.884543	'49
-5.407422	'50
-5.583513	'52
-5.884543	'53
-5.884543	'54
-5.407422	'58
-5.884543	'76
-5.884543	'80's
-5.884543	'?'
-5.884543	'cept
-5.884543	'ceptin'
-5.884543	'ello
-4.522815	'em
-5.884543	'fess
-5.884543	'fore
-5.884543	'low
-5.884543	'mon
-5.884543	'most
-5.884543	'n'
-5.884543	'nother
-5.583513	'nuff
-5.884543	'pache
-5.884543	'scuse
-5.884543	'stead
-5.884543	'tain't
-5.884543	'thirties
-5.884543	'till
-5.583513	'tis
-5.884543	'way
-2.700988	(
-2.700419	)
-5.185573	**ya
-5.407422	**yb
-4.981453	**yc
-5.583513	**ye
-4.981453	**yf
-5.884543	**yg
-5.884543	**yg-globulin
-5.884543	**yj
-5.106391	**yl
-5.884543	**ym
-5.884543	**ymg
-5.583513	**yp
-5.884543	**yr
-5.282483	**yt
-4.379393	**zg
-5.583513	**zq
-1.317399	,
-3.992448	-
-2.582862	--
-5.884543	-.10
-5.884543	-.5
-5.884543	-.50
-5.884543	-16-degrees
-5.884543	-20-degrees
-5.884543	-20-degrees-C
-5.407422	-78-degrees
-5.583513	-ism
-1.377092	.
-4.583513	0
-5.583513	0.001
-5.884543	0.002''
-5.884543	0.005
-5.884543	0.039
-5.884543	0.043
-5.884543	0.075
-5.185573	0.1
-5.884543	0.1-mv.
-5.884543	0.10
-5.884543	0.12
-5.884543	0.15
-5.884543	0.154
-5.583513	0.16
-5.407422	0.2
-5.884543	0.24
-5.884543	0.25
-5.884543	0.28
-5.583513	0.3
-5.884543	0.36
-5.884543	0.3M
-5.884543	0.4
-5.185573	0.5
-5.884543	0.5''
-5.884543	0.5-mv.
-5.884543	0.50
-5.884543	0.52
-5.583513	0.6
-5.884543	0.7
-5.884543	0.70
-5.884543	0.78
-5.282483	0.8
-5.884543	0.85
-5.583513	0.85%
-5.884543	0.906
-5.884543	0.95
-5.884543	0600
-3.307051	1
-5.106391	1,000
-5.884543	1,018,000
-5.583513	1,083,000
-5.884543	1,100
-5.884543	1,225
-5.884543	1,230
-5.884543	1,286
-5.884543	1,338,000
-5.884543	1,343
-5.884543	1,418,000
-5.884543	1,450
-5.583513	1,500
-5.884543	1,524
-5.884543	1,525,000
-5.884543	1,571
-5.884543	1-701
-5.282483	1-a
-5.884543	1-degree
-5.884543	1-degree-C
-5.884543	1-ml
-5.884543	1-o
-5.884543	1.0
-5.884543	1.0-mg.
-5.583513	1.00
-5.583513	1.07
-5.884543	1.1
-5.884543	1.2
-5.884543	1.25%
-5.583513	1.25-cm
-5.106391	1.5
-5.583513	1.8
-5.884543	1.8%
-4.058468	10
-5.407422	10%
-5.039445	10,000
-5.884543	10,500
-5.884543	10,517
-5.884543	10-M-diameter
-5.884543	10-degrees
-5.884543	10-degrees-C
-5.884543	10-foot
-5.884543	10-gallon
-5.185573	10-year
-5.884543	10.2
-5.884543	10.3
-5.884543	10.3-cm
-5.884543	10.4
-5.884543	10.6
-5.884543	10.6%
-5.884543	10.8%
-4.293478	100
-5.282483	100%
-5.583513	100,000
-5.884543	100-million-lb.
-4.9303	1000
-5.884543	1000-m-diameter
-5.884543	1001
-5.583513	101
-5.884543	1024
-4.805361	104
-4.981453	1040
-5.282483	1040A
-5.884543	105,000
-5.884543	105-degrees-F
-5.583513	106
-5.884543	106,500
-5.884543	1068
-5.884543	108
-5.407422	109-degrees-F
-5.884543	10:05
-4.422145	11
-5.583513	11%
-5.884543	11,000
-5.884543	11.6
-5.407422	110
-5.884543	110-degrees
-5.884543	110-degrees-C
-5.039445	1105
-5.583513	111
-5.583513	113
-5.407422	114
-5.884543	115
-5.884543	1159
-5.884543	1162
-5.884543	1184
-5.884543	11:00
-5.407422	11th
-4.304759	12
-5.583513	12%
-5.884543	12,500
-5.884543	12-inch
-5.407422	120
-5.583513	120-degrees
-5.884543	121
-5.884543	121,000
-5.884543	122
-5.884543	1223
-5.884543	123
-5.884543	1231
-5.884543	124
-5.583513	125
-5.884543	125th
-5.884543	126
-5.884543	126,000
-5.407422	128
-5.884543	1290
-5.884543	1298
-5.884543	12:01
-5.884543	12a
-4.54212	13
-5.884543	13,200
-5.884543	13.5
-5.884543	13.8
-5.884543	13.9
-5.583513	130
-5.884543	1307
-5.884543	1310
-5.884543	133
-5.583513	135
-5.884543	135*0C.
-5.884543	137
-5.884543	138
-5.884543	139
-4.583513	14
-5.884543	14%
-5.106391	14-1
-5.884543	14-2
-5.884543	14.5
-5.583513	14.7
-5.583513	140
-5.884543	140,000
-5.884543	140,414
-5.884543	140-degrees-F
-5.884543	141
-5.884543	143
-5.884543	144
-5.884543	1450
-5.884543	147,000
-5.884543	1492
-5.884543	14th
-4.128668	15
-5.185573	15%
-5.884543	15-
-5.884543	15.0
-5.884543	15.4
-5.884543	15.5
-5.407422	150
-5.884543	150-milliampere
-5.884543	1515
-5.884543	1516
-5.583513	153
-5.884543	154
-5.884543	1543
-5.884543	155
-5.884543	1550
-5.884543	1558
-5.583513	156
-5.884543	1565
-5.583513	1577
-5.583513	1579
-5.884543	1581
-5.407422	1582
-5.884543	1589
-5.884543	1590
-5.583513	1592
-5.583513	1593
-5.884543	1594-1674
-5.884543	1595
-5.884543	1596
-5.583513	1597
-5.407422	1598
-5.884543	1599
-5.039445	15th
-4.486603	16
-5.884543	16,000
-5.884543	16-mesh
-5.884543	16.7
-5.407422	160
-5.583513	160-degrees-F
-5.884543	160-ml.
-5.407422	1600
-5.583513	1601
-5.583513	1602
-5.884543	1607
-5.884543	1609
-5.884543	161
-5.583513	1613
-5.884543	1615
-5.884543	162,400
-5.884543	1622
-5.583513	1624
-5.185573	1625
-5.884543	1626
-5.583513	1628
-5.282483	1629
-5.884543	1631
-5.282483	1632
-5.884543	1633
-5.884543	1637
-5.884543	1638
-5.884543	1639
-5.884543	1639-40
-5.884543	164
-5.884543	1640
-5.884543	1642
-5.884543	1643
-5.884543	1644
-5.884543	165
-5.884543	1655
-5.884543	1657
-5.884543	1665
-5.884543	1665.32
-5.884543	1667.36
-5.884543	1678
-5.583513	168
-5.884543	1680
-5.884543	1687
-5.884543	169
-5.884543	1690
-5.884543	16th
-4.654094	17
-5.884543	170
-5.884543	170-degrees-C
-5.407422	1700
-5.884543	1702-14
-5.583513	1707
-5.884543	1709
-5.884543	171
-5.884543	1714
-5.884543	172
-5.884543	1721
-5.884543	1728
-5.884543	1746
-5.884543	1747
-5.884543	1748
-5.884543	175,000
-5.884543	1774
-5.407422	1776
-5.884543	1778
-5.884543	1780
-5.884543	1781
-5.884543	1782
-5.407422	1783
-5.884543	1785
-5.884543	1786
-5.583513	1787
-5.583513	1787-89
-5.407422	1788
-5.583513	1789
-5.884543	1791
-5.884543	1793
-5.106391	17th
-4.605789	18
-5.884543	18'.5
-5.884543	18-1
-5.884543	18-month
-5.583513	180
-5.884543	180-degrees
-5.884543	1804
-5.884543	1810
-5.884543	1814
-5.583513	1815
-5.884543	1819
-5.884543	1821
-5.884543	1830
-5.884543	1831
-5.039445	1832
-5.884543	1833
-5.282483	1834
-5.583513	1835
-5.884543	1837
-5.884543	1838
-5.884543	1840
-5.884543	1840's
-5.583513	1844
-5.884543	1846
-5.583513	1848
-5.583513	1849
-5.884543	185
-5.583513	1850
-5.884543	1850's
-5.583513	1851
-5.884543	1853
-5.583513	1855
-5.583513	1857
-5.583513	1858
-4.9303	1859
-5.884543	185th
-5.884543	186
-5.407422	1860
-5.884543	1860's
-5.185573	1861
-5.884543	1862
-5.884543	1863
-5.282483	1865
-5.884543	1866
-5.884543	1867
-5.282483	1868
-5.583513	1870
-5.884543	1870's
-5.884543	1871
-5.583513	1872
-5.282483	1875
-5.583513	1876
-5.884543	1878
-5.884543	1879
-5.583513	188
-5.884543	1880-1900
-5.884543	1880s
-5.583513	1881
-5.583513	1882
-5.583513	1883
-5.407422	1887
-5.407422	1888
-5.884543	1889
-5.884543	189
-5.583513	1890
-5.583513	1890's
-5.884543	1890s
-5.583513	1891
-5.407422	1892
-5.185573	1895
-5.282483	1896
-5.583513	1897
-5.884543	1897-8
-5.407422	1898
-5.884543	1899
-5.583513	18th
-4.738415	19
-5.884543	19-1
-5.884543	19-foot
-4.9303	1900
-5.407422	1901
-5.407422	1902
-5.583513	1903
-5.583513	1904
-5.407422	1905
-5.583513	1906
-5.407422	1907
-5.185573	1908
-5.407422	1909
-4.9303	1910
-5.583513	1911
-5.884543	1911-1912
-4.981453	1912
-4.9303	1913
-5.185573	1914
-5.884543	1914-1918
-5.884543	1915
-5.185573	1916
-5.039445	1917
-5.884543	1917-18
-5.407422	1918
-5.884543	1918-19
-5.282483	1919
-5.282483	1920
-5.185573	1920's
-5.583513	1920s
-5.583513	1921
-5.185573	1922
-5.407422	1923
-5.583513	1924
-5.407422	1925
-5.583513	1926
-5.185573	1927
-5.282483	1929
-5.185573	1930
-5.185573	1930's
-5.106391	1931
-5.583513	1932
-5.884543	1932-33
-5.106391	1933
-5.407422	1934
-5.106391	1935
-5.884543	1935-1955
-5.185573	1936
-5.106391	1937
-5.106391	1938
-5.884543	1938-1939
-5.583513	1938-39
-5.106391	1939
-4.805361	1940
-4.981453	1941
-4.981453	1942
-4.9303	1943
-4.884543	1944
-4.884543	1945
-4.84315	1946
-4.884543	1947
-4.770599	1948
-4.738415	1949
-5.884543	195-page
-4.884543	1950
-5.583513	1950's
-5.884543	1950-1953
-5.884543	1950s
-4.708451	1951
-5.884543	1951-1956
-4.486603	1952
-5.884543	1952-1958
-4.680423	1953
-4.422145	1954
-4.562324	1955
-4.680423	1956
-4.353064	1957
-5.884543	1957b
-4.085202	1958
-4.039445	1959
-5.407422	1959-1960
-5.884543	1959-60
-5.884543	196
-3.871706	1960
-5.407422	1960's
-5.884543	1960-1961
-4.052034	1961
-4.504332	1962
-5.282483	1963
-5.884543	1963-1972
-5.583513	1964
-5.282483	1965
-5.583513	1967
-5.884543	1970
-5.884543	1972
-5.884543	1980
-5.884543	1984
-5.282483	19th
-5.884543	1:00
-5.884543	1:218
-5.884543	1M
-5.884543	1a
-3.391782	2
-5.185573	2%
-5.884543	2'
-5.407422	2,000
-5.884543	2,090
-5.884543	2,489,000
-5.884543	2,758
-5.884543	2,800,000
-5.884543	2-1
-5.884543	2-2
-5.884543	2-3
-5.884543	2-4
-5.884543	2-5
-5.884543	2-degrees-C
-5.583513	2-liter
-5.884543	2-week
-5.583513	2.0
-5.282483	2.1
-5.884543	2.1.6
-5.884543	2.16
-5.884543	2.2
-5.884543	2.26
-5.884543	2.3
-5.407422	2.4
-5.884543	2.405
-5.884543	2.44
-5.282483	2.5
-5.583513	2.512
-5.884543	2.55
-5.884543	2.58
-5.407422	2.6
-5.884543	2.7
-5.583513	2.75
-5.884543	2.8
-4.316341	20
-5.407422	20%
-5.884543	20-degrees-C
-5.583513	20-to-1
-5.884543	20-year-old
-4.805361	200
-5.407422	200,000
-5.884543	200-degrees
-5.884543	200-man
-5.282483	2000
-5.039445	203
-5.884543	2048
-5.884543	2051
-5.106391	20th
-5.884543	20th-century
-4.486603	21
-5.884543	21-cm
-5.884543	210
-5.884543	2118
-5.884543	2130
-5.884543	214
-5.884543	214,938
-5.884543	216
-5.583513	21st
-4.562324	22
-5.884543	22%
-5.884543	22,000
-5.884543	22,807
-5.884543	22-day
-5.884543	220
-5.583513	220-degrees
-5.884543	2230
-5.884543	228
-5.407422	22nd
-4.708451	23
-5.884543	23-36
-5.282483	230
-5.884543	236
-5.583513	239
-5.884543	23d
-5.583513	23rd
-4.583513	24
-5.583513	24%
-5.884543	24,400
-5.884543	24-degrees
-5.884543	24-hour
-4.981453	24-hr.
-5.884543	240
-5.583513	247
-5.884543	24th
-4.379393	25
-5.583513	25%
-5.407422	25,000
-5.884543	25-liter
-5.884543	25.1%
-5.884543	25.3
-5.407422	250
-5.407422	250,000
-5.884543	2500
-5.884543	253
-5.884543	254
-5.407422	256
-5.583513	258
-4.708451	26
-5.884543	26,500
-5.884543	26-2
-5.884543	26.8
-5.583513	260
-5.884543	266-366
-5.884543	268,900
-5.884543	2688
-5.884543	269
-5.583513	26th
-5.039445	27
-5.884543	27%
-5.583513	270
-5.884543	270,000
-5.884543	271
-5.884543	272
-5.282483	275
-5.884543	275-degrees-F
-5.884543	27th
-5.039445	28
-5.583513	280
-4.9303	29
-5.884543	29.2
-5.884543	294-degrees-K
-5.884543	2991
-5.583513	29th
-5.884543	2:67
-5.884543	2a
-5.583513	2d
-5.884543	2nd
-3.63169	3
-5.407422	3%
-5.884543	3,000
-5.884543	3,450
-5.407422	3,500
-5.884543	3-1
-5.583513	3-cm
-5.884543	3-foot
-5.884543	3-hp.
-5.884543	3.0
-5.583513	3.03
-5.884543	3.10
-5.282483	3.15
-5.884543	3.190
-5.884543	3.25''
-5.583513	3.3
-5.884543	3.4
-5.583513	3.46
-5.282483	3.5
-5.884543	3.5%
-5.884543	3.7
-5.884543	3.75
-5.884543	3.8
-5.884543	3.9
-4.092151	30
-5.282483	30%
-5.583513	30,000
-4.805361	300
-5.583513	300,000
-5.884543	302
-5.884543	307
-5.583513	30th
-4.54212	31
-5.884543	314
-5.884543	31st
-5.282483	32
-5.884543	32*0C.
-5.884543	32-degrees-C
-5.884543	32-degrees-F
-5.884543	325-degrees-C
-5.884543	327
-5.884543	328
-5.407422	33
-5.583513	33-1
-5.407422	332
-5.884543	334
-5.583513	337-degrees-C
-4.708451	34
-5.884543	34,000
-5.884543	340-degrees-C
-5.583513	346
-5.282483	348
-4.981453	35
-5.884543	35%
-5.282483	350
-5.583513	350,000
-5.884543	3500
-5.185573	353
-5.884543	354
-5.185573	36
-5.884543	36-A
-5.583513	360
-5.884543	360,000
-5.884543	361
-5.583513	362
-5.884543	365
-5.407422	368(a)(1)
-5.884543	369
-5.407422	37
-5.884543	37,081
-5.884543	37,470
-5.884543	37-1
-5.583513	37-degrees
-5.583513	37-degrees-C
-5.884543	375
-5.407422	375-degrees-C
-5.884543	379,900
-4.981453	38
-5.884543	38*0
-5.282483	381
-5.282483	381(a)
-5.583513	381(c)
-5.884543	381(c)(14)
-5.884543	381(c)(16)
-5.884543	381(c)(4)
-5.583513	381(c)(6)
-5.884543	381(c)(9)
-5.884543	385
-5.884543	387
-5.884543	389
-5.583513	39
-5.583513	39,000
-5.884543	391
-5.583513	392
-5.884543	394
-5.884543	395
-5.884543	3:00
-5.884543	3:300
-5.884543	3MM
-3.823845	4
-5.884543	4%
-5.583513	4,000
-5.884543	4,427
-5.884543	4,585
-5.884543	4,900
-5.884543	4-1
-5.884543	4-cell
-5.884543	4-d
-5.583513	4-day
-5.583513	4-inch
-5.884543	4-month
-5.884543	4.0
-5.583513	4.1
-5.282483	4.2
-5.884543	4.21
-5.407422	4.3
-5.583513	4.5
-5.884543	4.6
-5.884543	4.7
-5.884543	4.77
-5.884543	4.8
-4.654094	40
-5.282483	40%
-5.282483	40,000
-5.884543	40,000,000
-5.884543	40-degrees-F
-5.583513	400
-5.583513	400,000
-5.884543	400-401
-5.884543	4000-plus
-5.583513	407
-5.407422	41
-5.884543	410
-5.884543	410-degrees-C
-5.884543	412
-5.884543	412-413
-4.884543	42
-5.884543	42,000
-5.884543	43
-5.884543	43*0
-5.884543	43*0C
-5.583513	43*0C.
-5.884543	430,000
-5.884543	431
-5.884543	434
-5.583513	44
-5.884543	44,000
-5.583513	44-year-old
-5.884543	442
-5.407422	45
-5.884543	45%
-5.583513	45-degrees
-5.583513	450
-5.884543	451
-5.884543	452
-5.583513	46
-5.884543	46%
-5.884543	46,000
-5.884543	462
-5.884543	463-degrees-C
-5.407422	47
-5.884543	47.1%
-5.884543	47.6
-5.884543	470
-5.884543	470-degrees-C
-5.282483	48
-5.884543	480
-5.884543	49
-5.884543	49%
-5.884543	49*0
-5.884543	499-520
-5.884543	4:00
-5.884543	4:45
-5.282483	4th
-3.976058	5
-5.583513	5%
-5.407422	5,000
-5.884543	5,014
-5.407422	5-1
-5.884543	5-5
-5.884543	5-6
-5.884543	5-day
-5.884543	5-degrees-C
-5.884543	5-foot
-5.884543	5-percent
-5.884543	5.3
-5.884543	5.4
-5.884543	5.4865771
-5.407422	5.5
-5.583513	5.6
-5.407422	5.7
-5.884543	5.8
-4.54212	50
-4.84315	50%
-5.884543	50-50
-5.884543	50-degrees
-5.407422	50-foot
-5.884543	50-percent
-5.884543	50-year
-5.282483	500
-5.884543	5000-word
-5.884543	51
-5.884543	510
-5.583513	512
-5.884543	514
-5.884543	520
-5.884543	525
-5.884543	53
-5.884543	54
-5.884543	54,320
-5.583513	54-17
-5.884543	540
-5.884543	541
-5.884543	542,250
-5.583513	55
-5.884543	55,987
-5.583513	56
-5.884543	56,000
-5.884543	5612
-5.884543	562
-5.884543	565
-5.884543	566
-5.185573	57
-5.884543	57%
-5.884543	573
-5.884543	58
-5.884543	58.8%
-5.884543	589
-5.583513	59
-5.884543	59,780
-5.884543	5:00
-5.884543	5th
-4.092151	6
-5.583513	6%
-5.884543	6'
-5.884543	6'.7
-5.884543	6(j)
-5.282483	6,000
-5.884543	6,768
-5.884543	6-1
-5.884543	6-2
-5.884543	6-degrees-C
-5.282483	6-hr.
-5.884543	6-inch
-5.884543	6-year
-5.884543	6.2
-5.884543	6.3
-5.583513	6.4
-5.884543	6.6
-4.738415	60
-5.884543	60%
-5.884543	60's
-5.884543	60*0C.
-5.884543	60-66
-5.884543	60-80
-5.884543	60-month
-5.583513	600
-5.884543	600-degrees
-5.884543	601
-5.884543	602.2
-5.884543	603
-5.884543	604,622
-5.884543	605
-5.884543	606
-5.884543	607
-5.884543	607-608
-5.884543	61
-5.884543	61.2%
-5.884543	613
-5.884543	619,000
-5.884543	62
-5.884543	62-63
-5.407422	63
-5.884543	63,000,000
-5.884543	63-64
-5.884543	635
-5.884543	638,560
-5.884543	63d
-5.884543	64
-5.884543	64%
-5.884543	64-66
-5.884543	64-page
-5.884543	642
-5.884543	643
-5.407422	65
-5.583513	65-degrees
-5.884543	65-year-old
-5.884543	650
-5.884543	66
-5.884543	66th
-5.884543	677
-5.884543	68
-5.884543	69
-5.884543	6a
-5.282483	6th
-4.304759	7
-5.583513	7%
-5.884543	7,000
-5.884543	7,500
-5.884543	7,827
-5.106391	7-1
-5.407422	7-2
-5.583513	7-3
-5.583513	7-4
-5.884543	7-5
-5.884543	7-6
-5.884543	7.2
-5.583513	7.5
-5.884543	7.6%
-4.9303	70
-5.583513	70%
-5.884543	70,000
-5.884543	70,524
-5.583513	700
-5.884543	701
-5.039445	7070
-5.884543	7074
-5.185573	71
-5.884543	71*&0C.
-5.884543	710
-5.407422	72
-5.884543	73
-5.407422	74
-5.884543	74.1
-4.884543	75
-5.583513	75%
-5.407422	750
-5.407422	76
-5.884543	76-per-cent
-5.884543	76.7
-5.884543	762
-5.884543	77
-5.884543	770
-5.884543	78
-5.583513	78th
-5.884543	79,400
-5.884543	795,586
-5.884543	7:00
-5.884543	7:25
-5.583513	7:30
-5.884543	7:45
-5.583513	7th
-4.194347	8
-5.282483	8,000
-5.884543	8-Balls
-5.884543	8-b-2
-5.884543	8-inch
-5.884543	8-mm
-5.583513	8.6
-5.583513	8.6-mm
-4.9303	80
-5.583513	80%
-5.884543	80,000
-5.884543	80-degrees-C
-4.884543	800
-5.884543	81
-5.884543	81,000
-5.884543	817
-5.884543	82
-5.884543	821,220
-5.884543	825,000
-5.583513	83
-5.884543	83rd
-5.884543	84-foot
-5.884543	840,503
-5.106391	85
-5.583513	85-degrees
-5.884543	86
-5.884543	86%
-5.884543	87
-5.884543	870,000
-5.884543	871
-5.884543	883,000
-5.884543	885
-5.884543	892
-5.884543	899
-5.884543	8th
-4.486603	9
-5.884543	9'
-5.884543	9.3
-5.583513	9.4
-5.583513	9.8
-5.282483	90
-5.884543	90%
-5.407422	90-degrees
-5.583513	90-degrees-F
-5.884543	91
-5.884543	92.5
-5.884543	93
-5.583513	94
-5.884543	944
-5.884543	95
-5.884543	950
-5.884543	954
-5.407422	96
-5.884543	960-mc
-5.407422	97
-5.884543	98
-5.407422	99
-5.884543	99.1
-5.884543	9:47
-5.884543	9a
-5.884543	9b
-5.884543	9e
-2.903177	:
-2.333825	;
-1.31316	</s>
-99	<s>
-2.338124	?
-2.995241	A
-5.583513	A's
-5.884543	A-1
-5.884543	A-26
-5.185573	A-Z
-5.884543	A-Z's
-4.23133	A.
-5.884543	A.B.
-5.407422	A.D.
-4.981453	A.M.
-5.583513	A.M.A.
-5.884543	A40-AjK
-5.884543	AA
-5.583513	AAb
-5.583513	AB
-5.884543	ABC
-5.185573	ABO
-5.884543	ACTH
-5.884543	AD
-5.407422	AFL-CIO
-5.884543	AH6
-4.884543	AIA
-5.185573	AIMO
-5.884543	AL
-4.981453	AM
-5.884543	ASPIS
-5.884543	ASPR
-5.583513	ASW
-5.583513	ATP
-5.884543	AVC
-5.185573	AWOC
-5.884543	Aaa-ee
-5.884543	Aaawww
-5.884543	Aah
-5.185573	Aaron
-5.884543	Ab63711-r
-5.884543	Abandon
-5.884543	Abandoning
-5.583513	Abbas
-5.884543	Abbas's
-5.884543	Abbe
-5.282483	Abbey
-5.884543	Abbot
-5.884543	Abdallah
-5.884543	Abe
-4.605789	Abel
-5.884543	Abel's
-5.884543	Abelson
-5.583513	Abernathy
-5.884543	Abernathys
-5.583513	Ablard
-5.884543	Abolition
-5.884543	Abolitionists
-4.469569	About
-4.708451	Above
-5.884543	Aboveground
-5.407422	Abraham
-5.884543	Abreaction
-5.884543	Abruptly
-5.884543	Absent-minded
-5.884543	Absolution
-5.282483	Abstract
-5.407422	Abstraction
-5.884543	Abstractionists
-5.884543	Abstracts
-5.583513	Abuse
-5.884543	Abyssinians
-5.106391	Academy
-5.185573	Acala
-5.884543	Acapulco
-5.282483	Accacia
-5.884543	Accademia
-5.884543	Acceptable
-5.884543	Acceptance
-5.884543	Accepted
-5.884543	Accident
-5.884543	Accidental
-5.884543	Accompanied
-4.680423	According
-4.680423	Accordingly
-5.884543	Accounting
-5.583513	Accounts
-5.884543	Accuracy
-5.884543	Ace
-5.884543	Aces
-5.407422	Acey
-5.884543	Achievement
-5.884543	Achieving
-5.884543	Achilles
-5.884543	Ackerly
-5.884543	Acourse
-5.884543	Acoustical
-5.884543	Acquiring
-5.106391	Acropolis
-5.106391	Across
-3.888908	Act
-5.185573	Acting
-5.583513	Action
-5.583513	Active
-5.884543	Actively
-5.185573	Activities
-5.884543	Acts
-5.407422	Actual
-4.562324	Actually
-5.884543	Ad
-4.654094	Ada
-5.282483	Ada's
-4.437385	Adam
-5.884543	Adam's
-4.32824	Adams
-5.407422	Adams'
-5.884543	Adams's
-5.884543	Adaptation
-5.583513	Add
-5.583513	Addabbo
-5.884543	Added
-5.884543	Addict
-5.884543	Addison
-4.84315	Additional
-5.407422	Additionally
-5.884543	Ade
-5.583513	Adele
-5.185573	Adelia
-5.884543	Adelos
-5.884543	Adenauer
-5.884543	Adios
-4.9303	Adjusted
-5.884543	Adjusting
-5.583513	Adjustment
-5.884543	Adlai
-5.407422	Adler
-5.583513	Admassy
-5.583513	Admassy's
-4.453179	Administration
-5.407422	Administrative
-5.884543	Admirably
-5.884543	Admiralty
-5.884543	Admissions
-5.282483	Adolf
-5.884543	Adolphus
-5.106391	Adoniram
-5.884543	Adonis
-5.884543	Adoption
-5.884543	Adrar
-5.407422	Adrian
-5.884543	Adrianople
-5.583513	Adrien
-5.884543	Advanced
-5.884543	Advancement
-5.884543	Adverbial
-5.884543	Advertiser
-5.884543	Advertising
-5.583513	Advice
-4.884543	Advisory
-5.185573	Advocate
-4.708451	Aegean
-5.884543	Aerobacter
-5.884543	Aeronautics
-5.282483	Aerospace
-5.282483	Aeschylus
-2.913267	Af
-5.407422	Af-fold
-5.282483	Af-stage
-5.884543	Af-values
-5.884543	Affaires
-4.805361	Affairs
-5.884543	Affect
-5.884543	Affirmatively
-5.884543	Afghans
-5.583513	Afraid
-5.884543	Afranio
-4.738415	Africa
-4.770599	African
-5.884543	Afrika
-5.884543	Afrique
-3.744664	After
-5.884543	Afternoon
-5.407422	Afterwards
-4.407422	Again
-5.185573	Against
-5.583513	Agamemnon
-5.884543	Agamemnon's
-5.583513	Agatha
-4.84315	Age
-5.185573	Agency
-5.884543	Agents
-4.884543	Ages
-5.583513	Aggie
-5.884543	Aging
-5.884543	Agnes
-5.282483	Agnese
-5.884543	Agoeng
-5.407422	Agreeable
-4.469569	Agreement
-5.407422	Agricultural
-5.106391	Agriculture
-5.884543	Agriculture's
-5.884543	Agrobacterium
-4.680423	Ah
-5.884543	Ah-ah
-5.884543	Ahah
-5.583513	Ahead
-5.884543	Ahm
-5.884543	Ahmad's
-5.884543	Ahmiri
-5.185573	Aid
-5.884543	Aida
-5.884543	Aids
-5.407422	Ain't
-5.884543	Ainu
-5.884543	Ainus
-4.62927	Air
-5.884543	Air-drifts
-5.407422	Aircraft
-5.884543	Airless
-5.884543	Airmail
-5.884543	Airpark
-5.583513	Airport
-5.884543	Airy
-4.009481	Aj
-5.884543	Akita
-5.884543	Akron
-5.407422	Al
-5.884543	Al's
-4.9303	Alabama
-5.884543	Alai
-5.884543	Alarmed
-5.583513	Alas
-4.62927	Alaska
-5.282483	Alastor
-5.884543	Albania
-5.106391	Albany
-4.84315	Albert
-5.583513	Alberto
-5.407422	Albright
-5.583513	Albright's
-5.884543	Albrights'
-5.884543	Alcibiades
-5.884543	Alcinous'
-5.884543	Alcohol
-5.884543	Alcorn
-5.884543	Alcott's
-5.884543	Aldermen
-5.884543	Aldridge
-4.486603	Alec
-5.185573	Alec's
-4.437385	Alex
-4.884543	Alex's
-4.293478	Alexander
-5.407422	Alexander's
-5.583513	Alexandria
-4.271759	Alfred
-5.407422	Alfred's
-5.583513	Alfredo
-5.407422	Algol
-5.884543	Aliah
-4.884543	Alice
-5.282483	Alicia
-5.884543	Alienus
-5.884543	Alison
-5.583513	Alix
-5.884543	Alix's
-3.634123	All
-5.884543	Allah
-5.884543	Allan
-5.884543	Allay
-5.884543	Allegheny
-5.185573	Allen
-5.884543	Allen's
-5.884543	Alley
-5.407422	Alliance
-5.583513	Allies
-5.884543	Allocation
-5.884543	Allons
-5.583513	Allotments
-5.884543	Alloy
-5.884543	Allso
-5.282483	Allstates
-5.884543	Allstates'
-5.884543	Allstates-Zenith
-5.106391	Alma
-5.282483	Almagest
-5.407422	Almighty
-4.654094	Almost
-5.884543	Alokut
-5.407422	Alone
-5.185573	Along
-5.884543	Alors
-5.884543	Aloud
-5.583513	Alpers
-5.185573	Alpert
-5.884543	Alperts
-5.185573	Alpha
-5.884543	Alphonse
-5.583513	Alps
-4.884543	Already
-5.407422	Alsatian
-5.884543	Alsing
-4.32824	Also
-5.583513	Alsop
-5.884543	Altairians
-5.282483	Altenburg
-5.884543	Alterman
-5.884543	Alternate
-5.884543	Alternately
-3.970729	Although
-5.884543	Alto
-5.407422	Altogether
-5.884543	Alton
-5.185573	Alumni
-5.407422	Alvarez
-5.884543	Alvear
-5.884543	Alvin
-5.039445	Always
-5.884543	Alwin
-5.407422	Am
-5.282483	Amadee
-5.884543	Amadee's
-5.884543	Amado
-5.884543	Amaral
-5.884543	Amateur
-5.583513	Amazon
-5.583513	Ambassador
-5.407422	Ambiguity
-5.884543	Ambler
-5.884543	Ambushes
-5.583513	Ameaux
-5.583513	Amelia's
-4.9303	Amen
-5.106391	Amendment
-5.583513	Amendments
-5.884543	Amenitskii
-3.867509	America
-5.106391	America's
-3.488343	American
-5.407422	American-Negro
-5.884543	American-trained
-5.884543	Americana
-4.353064	Americans
-5.884543	Americas
-5.884543	Amicam
-5.884543	Amici
-5.884543	Amid
-5.884543	Amis
-5.583513	Amonasro
-4.522815	Among
-5.583513	Amos
-5.583513	Amp
-5.884543	Amra
-5.884543	Amt
-4.84315	Amy
-3.823845	An
-5.884543	An'
-5.884543	Ana
-5.884543	Anabaptist
-5.884543	Anabaptists
-5.884543	Anaconda
-5.884543	Analogously
-5.583513	Analyses
-5.185573	Analysis
-5.185573	Analytical
-5.884543	Analytrol
-5.884543	Anania
-5.884543	Anatomically
-5.583513	Ancient
-5.884543	Ancistrodon
-3.081086	And
-5.583513	Andean
-5.884543	Andersen
-5.185573	Anderson
-5.884543	Anderson's
-5.884543	Andover
-5.407422	Andre
-4.62927	Andrei
-5.583513	Andrei's
-5.039445	Andrena
-5.884543	Andres
-5.106391	Andrew
-5.884543	Andrews
-5.407422	Androfski
-5.884543	Andromache
-4.805361	Andrus
-5.884543	Andruses
-4.393181	Andy
-5.282483	Andy's
-5.185573	Angel
-5.583513	Angel's
-4.654094	Angeles
-5.884543	Angeles-Pasadena
-5.282483	Angelina
-5.884543	Angell
-5.185573	Angelo
-5.583513	Angelo's
-4.84315	Angels
-5.583513	Anger
-4.654094	Angie
-5.884543	Angleterre
-5.884543	Anglia
-5.583513	Anglo-American
-5.884543	Anglo-Americans
-5.884543	Anglo-Jewish
-5.884543	Anglo-Protestant
-4.562324	Anglo-Saxon
-5.884543	Anglo-Saxons
-5.884543	Anglophilia
-5.884543	Anglophobia
-5.884543	Angrily
-5.407422	Angry
-5.583513	Angst
-5.884543	Anhalt-Bernburg
-5.282483	Animals
-5.884543	Aniseikonic
-5.884543	Anita
-4.605789	Ann
-5.583513	Ann's
-5.884543	Anna
-4.379393	Anne
-5.407422	Anne's
-5.884543	Annie
-5.884543	Annisberg
-4.708451	Anniston
-5.884543	Anniston's
-5.884543	Anniversary
-5.282483	Annual
-4.128668	Another
-5.884543	Anselm's
-5.884543	Ansley
-5.884543	Answer
-5.185573	Anta
-5.884543	Antarctica
-5.884543	Antares
-5.407422	Anthea
-5.884543	Anthology
-4.884543	Anthony
-5.884543	Anthony's
-5.884543	Anthropology
-5.884543	Anti-A
-5.583513	Antietam
-5.884543	Antigone
-5.884543	Antinomians
-5.884543	Antiquity
-5.884543	Antisubmarine
-5.583513	Antithyroid
-5.407422	Antler
-5.884543	Antonio
-5.583513	Antony
-5.407422	Anxiety
-4.422145	Any
-5.583513	Anybody
-5.282483	Anyhow
-5.039445	Anyone
-4.708451	Anything
-5.039445	Anyway
-5.884543	Anywhere
-5.884543	Anzilotti
-5.884543	Aouelloul
-5.884543	Apache
-5.407422	Apaches
-5.185573	Apart
-5.884543	Apartment
-5.884543	Aphrodite
-5.884543	Apocalypse
-5.583513	Apocalyptic
-5.583513	Apollinaire
-5.884543	Apollo
-5.884543	Apollo's
-5.884543	Apollonian
-5.884543	Apologie
-5.884543	Apology
-5.884543	Apostles
-5.884543	App.
-5.884543	Appalachian
-5.884543	Appaloosas
-5.884543	Apparatus
-5.884543	Apparel
-4.680423	Apparently
-5.282483	Appeal
-5.583513	Appeals
-4.884543	Appendix
-5.884543	Appendixes
-5.884543	Appian
-5.884543	Appleby
-5.884543	Appleton
-5.282483	Application
-5.884543	Applying
-5.884543	Appointment
-5.884543	Apprehensively
-5.884543	Apprentice
-5.884543	Approaching
-5.884543	Appropriate
-5.884543	Appropriation
-5.583513	Approved
-5.106391	Approximately
-4.340475	April
-5.884543	Apropos
-5.884543	Aquacutie
-5.583513	Aquidneck
-5.884543	Aquinas
-5.884543	Arabic
-5.884543	Araby
-5.583513	Arapacis
-5.884543	Arbeitskommando
-5.884543	Arbitrary
-5.185573	Arbuckle
-5.884543	Arbuckle's
-5.884543	Arc
-5.884543	Arch
-5.884543	Archaeology
-5.407422	Archangel
-5.884543	Archbishop
-5.884543	Archimedes
-5.884543	Archipelago
-5.407422	Architect
-5.884543	Archuleta
-5.884543	Arcilla
-5.884543	Arden
-5.583513	Ardent
-5.884543	Ardmore
-4.522815	Are
-5.583513	Area
-5.407422	Aren't
-5.884543	Ares
-4.770599	Argiento
-5.884543	Argive
-5.407422	Argon
-5.884543	Argonauts
-5.884543	Argos
-5.407422	Ariadne
-5.884543	Arianism
-5.884543	Arianist
-5.884543	Arianists
-5.185573	Aricaras
-5.884543	Arigato
-5.583513	Arimathea
-5.583513	Aristide
-5.583513	Aristotelian
-4.605789	Aristotle
-5.106391	Aristotle's
-5.407422	Arithmetic
-5.185573	Arizona
-4.981453	Arkansas
-5.884543	Arleigh
-4.770599	Arlen
-5.884543	Arlen's
-4.504332	Arlene
-5.884543	Arlene's
-5.407422	Arlington
-5.583513	Arm
-5.884543	Armada's
-4.522815	Armed
-5.884543	Armentieres
-5.884543	Armide
-5.884543	Armies
-5.583513	Armistice
-5.583513	Arms
-5.884543	Armstrong
-4.304759	Army
-5.407422	Arnold
-5.884543	Arnold's
-5.282483	Around
-5.884543	Aroused
-5.106391	Arp
-5.884543	Arrangement
-5.583513	Arriving
-4.884543	Art
-5.583513	Arte
-5.884543	Arterial
-5.884543	Artfully
-4.340475	Arthur
-5.884543	Arthur's
-4.605789	Article
-5.884543	Articles
-4.981453	Artie
-5.884543	Artificer
-5.884543	Artisans
-5.884543	Artistic
-4.9303	Artists
-5.583513	Arts
-5.583513	Arturo
-3.366029	As
-5.884543	Asch
-5.884543	Aschenbach
-5.884543	Ash
-5.884543	Asher
-5.583513	Asheville
-5.884543	Ashikaga
-5.884543	Ashley
-4.54212	Asia
-5.282483	Asian
-5.282483	Aside
-5.884543	Asimov's
-5.282483	Ask
-4.9303	Asked
-5.185573	Askington
-5.884543	Askington's
-5.884543	Asleep
-5.884543	Aspects
-5.583513	Assam
-5.185573	Assembly
-5.884543	Asser
-5.884543	Asses
-5.884543	Assessment
-5.884543	Assessors
-5.884543	Assist
-5.583513	Assistance
-5.185573	Assistant
-5.583513	Associate
-5.884543	Associated
-5.884543	Associates
-4.32824	Association
-5.583513	Associations
-5.884543	Assonance
-5.884543	Assume
-5.583513	Assuming
-5.884543	Assuredly
-5.884543	Assyriology
-5.884543	Astaires
-5.884543	Astarte
-5.583513	Asteria
-5.884543	Asteroidal
-5.884543	Astin
-5.884543	Astonishingly
-5.583513	Astor
-5.884543	Astra
-5.884543	Astronaut
-5.884543	Astronomy
-5.884543	Astwood
-3.453179	At
-5.884543	Ath.
-4.770599	Athabascan
-5.583513	Athalie
-5.884543	Athearn
-5.884543	Athena
-5.583513	Athenian
-5.282483	Athenians
-4.981453	Athens
-5.282483	Athletic
-5.884543	Athletics
-5.884543	Atkinson
-4.708451	Atlanta
-5.884543	Atlantes
-4.583513	Atlantic
-5.884543	Atlantica
-5.884543	Atlantis
-4.84315	Atlas
-5.282483	Atomic
-5.884543	Atonement
-5.583513	Atreus
-5.884543	Atta
-5.583513	Attack
-5.884543	Attempts
-5.583513	Attendance
-5.884543	Attending
-5.583513	Attic
-5.884543	Attica
-4.522815	Attorney
-5.884543	Attorneys
-5.884543	Attributes
-5.884543	Aubr.
-5.884543	Aubrey's
-5.884543	Auditors
-5.884543	Audits
-5.884543	Auerbach's
-5.884543	Auf
-4.469569	August
-5.884543	Augustan
-5.407422	Augustine
-5.884543	Augustine's
-5.407422	Augustus
-4.805361	Aunt
-5.583513	Auntie
-5.884543	Aurelius
-5.583513	Austin
-5.583513	Austin's
-5.106391	Australia
-4.981453	Australian
-5.884543	Australites
-5.583513	Austria
-5.884543	Austrian
-5.583513	Author
-5.583513	Authority
-5.583513	Authority's
-5.583513	Auto
-5.884543	Autobiography
-4.884543	Autocoder
-5.884543	Autocollimator
-5.407422	Autocracies
-5.884543	Automatic
-5.884543	Automatically
-5.884543	Automobile
-5.884543	Autos
-5.884543	Autosuggestibility
-5.583513	Auxiliaries
-5.282483	Available
-5.884543	Avant-garde
-4.680423	Avenue
-5.884543	Average
-5.884543	Averages
-5.583513	Aviation
-5.884543	Aviv
-5.884543	Avocado
-5.884543	Avoiding
-5.884543	Avowed
-5.407422	Aw
-5.884543	Awake
-5.583513	Awkwardly
-5.884543	Ax
-5.884543	Axioms
-5.884543	Aye-yah-ah-ah
-5.583513	Aylesbury
-5.884543	Ayres'
-5.884543	Aysshom
-3.970729	B
-4.562324	B'dikkat
-5.884543	B'dikkat's
-5.884543	B's
-5.884543	B-47
-5.884543	B-47's
-5.185573	B-52
-5.884543	B-52's
-5.884543	B-52H
-5.884543	B-58
-5.407422	B-70
-4.353064	B.
-5.407422	B.'s
-5.583513	B.A.
-4.981453	B.C.
-5.884543	B.D.
-5.884543	B.t.u.
-5.884543	B70
-5.884543	BCD
-5.884543	BG
-5.583513	BMEWS
-4.583513	BOD
-5.884543	BOD's
-5.884543	BSN
-5.185573	BW
-5.884543	Babbitt
-5.884543	Babcock
-5.884543	Babe
-5.583513	Babel
-5.407422	Baby
-5.583513	Baby-dear
-5.884543	Babylon
-5.884543	Babylonian
-5.884543	Baccarat
-5.884543	Bacchus
-5.407422	Bach
-5.884543	Bachelor
-5.884543	Bacillus
-4.981453	Back
-5.884543	Background
-5.884543	Backstage
-5.884543	Backstairs
-5.884543	Backward
-5.884543	Backyard
-5.583513	Bacon
-5.884543	Bad
-5.884543	Baden-Baden
-5.185573	Baer
-5.884543	Bagh
-5.884543	Bah
-5.583513	Baileefe
-5.583513	Baird
-4.981453	Bake
-4.469569	Baker
-5.884543	Bakhtiari
-5.185573	Balafrej
-5.884543	Balanced
-5.884543	Balcolm
-5.884543	Baldness
-5.583513	Baldwin
-5.884543	Bali
-5.884543	Balinese
-5.884543	Balkan
-5.884543	Balkans
-5.282483	Ball
-5.884543	Ballard
-5.583513	Ballestre
-5.106391	Ballet
-5.884543	Ballets
-5.583513	Ballistic
-5.583513	Baltic
-4.9303	Baltimore
-5.583513	Balzac
-5.884543	Bambi
-5.884543	Bananas
-5.884543	Banbury
-5.185573	Bancroft
-5.884543	Bancroft's
-5.583513	Band
-5.884543	Bandaging
-4.486603	Bang-Jensen
-5.106391	Bang-Jensen's
-5.583513	Bangs
-5.884543	Bani
-5.884543	Banjo
-4.504332	Bank
-5.884543	Banker
-5.884543	Bankers
-5.884543	Bankhead
-4.708451	Banks
-5.884543	Banks's
-4.981453	Baptist
-5.884543	Baptist's
-5.407422	Baptists
-5.039445	Bar
-5.884543	Bar-H
-5.185573	Barbara
-5.884543	Barbarians
-4.62927	Barco
-4.981453	Barco's
-5.884543	Bardall
-5.884543	Bardell
-5.884543	Bari
-5.106391	Barker
-5.884543	Barnard
-5.884543	Barnes
-4.981453	Barney
-5.282483	Barnumville
-5.884543	Baroque
-5.884543	Barren
-5.583513	Barrington
-5.884543	Barry
-5.884543	Barrymores
-5.407422	Barstow
-5.583513	Bartleby
-5.583513	Bartlett
-5.884543	Bartok
-5.884543	Bartoli's
-4.486603	Barton
-5.407422	Barton's
-5.039445	Base
-5.884543	Baseball's
-5.884543	Based
-5.884543	Basel
-5.884543	Basement
-5.884543	Basho's
-5.185573	Basic
-5.583513	Basically
-5.583513	Basil's
-5.583513	Baslot
-5.884543	Basso
-5.884543	Bast
-5.583513	Bastards
-5.407422	Bates
-5.884543	Bath
-5.884543	Bathar-on-Walli
-5.884543	Bathyran
-5.583513	Bathyrans
-5.282483	Baton
-5.282483	Battenkill
-5.583513	Battery
-5.583513	Battle
-5.884543	Baudelaire
-5.884543	Bauer
-5.884543	Bauhaus
-5.583513	Bavaria
-4.770599	Bay
-5.884543	Bayerische
-5.583513	Bayou
-5.884543	Bayreuth
-5.583513	Bazaar
-4.708451	Be
-4.770599	Beach
-5.884543	Beale
-5.583513	Beall
-5.884543	Beallsville
-5.884543	Beaming
-5.884543	Bean
-5.407422	Bear
-5.884543	Beard
-5.884543	Beardslee
-5.884543	Beardsley's
-5.583513	Beat
-5.583513	Beaten
-5.884543	Beatrice
-5.884543	Beau
-5.884543	Beauchamps
-4.981453	Beauclerk
-5.884543	Beaumont
-5.583513	Beautiful
-5.884543	Beauty
-5.884543	Beauty's
-4.282483	Because
-5.884543	Bechhofer
-5.884543	Beck
-5.106391	Beckett
-5.282483	Beckett's
-5.884543	Beckman
-5.282483	Beckworth
-5.884543	Becoming
-5.407422	Bede
-5.884543	Bedford
-5.884543	Bedtime
-5.884543	Bee
-5.884543	Bee-Hunter
-5.407422	Beebe
-5.282483	Beech
-5.884543	Been
-5.884543	Beer
-5.884543	Beethoven
-5.884543	Beethoven's
-4.23133	Before
-5.884543	Begging
-5.884543	Begin
-5.407422	Beginning
-5.583513	Begley
-5.884543	Behavior
-4.84315	Behind
-5.884543	Beige's
-4.770599	Being
-5.884543	Bekkai
-5.583513	Belge
-5.407422	Belgian
-5.884543	Belgium
-5.884543	Belief
-5.884543	Believing
-5.884543	Bell
-5.884543	Bellamy's
-5.884543	Belle
-5.583513	Belletch
-5.884543	Bellini
-5.583513	Bellman
-5.583513	Bellow
-5.884543	Bellow's
-5.884543	Bellows
-5.884543	Bells
-5.884543	Belmont
-5.884543	Beloved
-4.884543	Below
-5.583513	Belton
-5.884543	Belvedere
-5.884543	Belzec
-4.84315	Ben
-5.884543	Ben's
-5.884543	Ben-hadad
-5.583513	Beneath
-5.884543	Benedictine
-5.583513	Benelux
-5.884543	Benesi
-5.884543	Benet
-5.282483	Bengal
-5.884543	Bengali
-5.185573	Benjamin
-5.407422	Bennington
-5.282483	Benny
-5.884543	Benoit
-4.680423	Benson
-5.884543	Benson's
-5.583513	Bentham
-5.583513	Bentley
-4.738415	Beowulf
-5.884543	Beowulf's
-5.884543	Berche
-5.884543	Berg's
-4.884543	Berger
-5.407422	Berger's
-5.884543	Bergson
-5.884543	Beringer
-5.884543	Berkeley
-5.282483	Berle
-4.981453	Berlin
-5.884543	Berlioz
-5.884543	Berlitz
-5.884543	Berman
-5.106391	Bermuda
-5.185573	Bern
-5.282483	Bernard
-5.884543	Bernardo
-5.884543	Berne
-5.884543	Bernhardt
-5.583513	Bernoulli
-5.884543	Bernstein
-5.884543	Berry
-5.282483	Bertha
-5.884543	Berthelier
-5.407422	Berto
-5.884543	Berto's
-5.884543	Beryl
-5.583513	Beside
-4.366029	Besides
-5.583513	Bess
-5.583513	Bessarabia
-5.282483	Best
-5.884543	Best's
-5.884543	Bestimmung
-5.583513	Beta
-5.282483	Beth
-5.884543	Bethel
-5.185573	Better
-5.884543	Betty
-5.884543	Betty's
-4.9303	Between
-5.407422	Beverly
-4.770599	Beyond
-4.738415	Bible
-5.583513	Biblical
-5.884543	Bibliography
-5.884543	Bicycle
-5.884543	Bid
-5.884543	Bids
-5.884543	Bifutek-san
-4.407422	Big
-5.884543	Biggest
-4.366029	Bill
-5.583513	Bill's
-5.884543	Billie
-5.884543	Billions
-4.583513	Billy
-5.583513	Bing
-5.884543	Bini
-5.583513	Binomial
-5.185573	Biological
-5.282483	Bird
-5.884543	Birds
-5.884543	Birdwood
-5.884543	Birgitta
-5.407422	Birkhead
-5.185573	Birmingham
-5.884543	Birnbaum
-5.583513	Birth
-5.583513	Biscayne
-4.9303	Bishop
-5.583513	Bishopsgate
-5.884543	Bismark
-5.884543	Bits
-5.884543	Bitter
-5.884543	Bizarre
-5.884543	Bjerre's
-4.316341	Black
-5.106391	Black's
-5.583513	Blackberry
-5.583513	Blackfeet
-4.708451	Blackman
-5.407422	Blackmer
-5.407422	Blackwell
-5.884543	Blackwell's
-5.884543	Blackwells
-5.884543	Blaine
-5.106391	Blake
-5.884543	Blakey
-5.884543	Blanchard's
-4.54212	Blanche
-5.884543	Blanche's
-5.884543	Blasphemous
-4.9303	Blatz
-5.884543	Blatz's
-5.884543	Blaustein
-5.884543	Bleaching
-5.185573	Blenheim
-5.583513	Blessed
-5.884543	Blessings
-5.583513	Blevins
-5.884543	Blevins'
-5.884543	Blind
-5.884543	Blish's
-5.884543	Bloch
-5.407422	Blockade
-5.884543	Blois
-5.106391	Blood
-5.884543	Bloomfield
-5.884543	Blowers
-5.884543	Blowing
-4.504332	Blue
-5.884543	Blues
-5.583513	Blumberg
-5.884543	Blunt
-5.884543	Bluntly
-5.884543	Bluthenzweig
-5.884543	Boa
-5.884543	Boadicea
-4.261293	Board
-5.407422	Boats
-5.185573	Bob
-5.884543	Bob's
-4.54212	Bobbie
-5.583513	Bobbie's
-5.583513	Bobbsey
-4.654094	Bobby
-5.884543	Bodhisattva
-5.884543	Bodin
-5.884543	Bodleian
-5.282483	Body
-5.884543	Boeing
-5.884543	Boeotian
-5.884543	Bogartian
-5.884543	Boggs
-5.884543	Bohart
-5.884543	Boheme
-5.884543	Bohemian
-5.884543	Bois
-5.884543	Bold
-5.884543	Bolingbroke
-5.884543	Bolingbroke's
-5.583513	Boliou
-5.884543	Bologna
-5.884543	Bolshevism
-5.884543	Bolshevistic
-5.884543	Boltzmann
-5.407422	Bomb
-5.884543	Bombay
-5.282483	Bombus
-5.583513	Bon
-5.884543	Bonaparte
-5.583513	Bonaventure
-5.884543	Bonenfant
-5.884543	Bonfiglio
-5.106391	Bong
-5.884543	Bonham
-5.282483	Boniface
-5.884543	Boniface's
-5.884543	Bonito
-5.884543	Bonjour
-5.106391	Bonner
-5.884543	Bonnet
-5.884543	Booby
-5.884543	Boogie
-4.708451	Book
-5.583513	Booker
-5.884543	Bookies
-5.583513	Books
-5.583513	Boone
-5.884543	Boot
-5.407422	Booth
-5.583513	Bordel
-5.583513	Border
-5.884543	Boredom
-4.884543	Boris
-5.407422	Boris'
-5.583513	Born
-5.884543	Borneo
-5.583513	Borrowing
-5.884543	Bosch
-5.106391	Bosis
-5.884543	Bosis'
-5.884543	Bosler
-5.583513	Boss
-4.422145	Boston
-5.884543	Boston's
-4.160267	Both
-5.884543	Bottega
-5.039445	Bottom
-5.884543	Botulinal
-5.884543	Boucher
-5.583513	Boulder
-4.9303	Boulevard
-5.407422	Boundary
-5.407422	Bourbon
-5.106391	Bourbons
-5.884543	Bourn
-5.884543	Boutflower
-5.884543	Bouvardier
-5.884543	Bowers
-5.884543	Bowes
-5.884543	Bowl
-5.884543	Bowman
-5.282483	Boxell
-5.106391	Boy
-5.407422	Boyd
-5.884543	Boylston
-5.407422	Boys
-5.407422	Brace
-5.884543	Brace's
-5.884543	Bracken
-5.583513	Bradbury's
-5.407422	Bradford
-5.884543	Bradley's
-5.884543	Brae
-5.583513	Brahmaputra
-5.884543	Brailsford
-5.583513	Brain
-5.884543	Brainards
-5.884543	Brains
-5.583513	Brakes
-5.884543	Brakke
-5.282483	Branch
-5.884543	Branchville
-5.407422	Brandel
-5.884543	Brandenburg
-4.981453	Brandon
-5.583513	Brandon's
-5.039445	Brandywine
-4.422145	Brannon
-5.884543	Brannon's
-4.9303	Braque
-5.282483	Braque's
-5.884543	Brassica
-4.805361	Brassnose
-5.583513	Bravado
-5.282483	Brave
-5.884543	Bravo
-5.185573	Brazil
-5.884543	Brazilian
-5.884543	Breakfast
-5.106391	Breasted
-5.407422	Breath
-5.884543	Breckenridge's
-5.583513	Breed's
-5.884543	Bremerton
-5.884543	Bremsstrahlung
-5.407422	Brennan
-4.884543	Brenner
-5.407422	Brenner's
-5.884543	Brest
-5.884543	Brest-Silevniov
-5.884543	Brestowe
-5.884543	Breton
-5.884543	Breve
-5.884543	Brew
-5.884543	Brewery
-5.185573	Brian
-5.884543	Bricks
-4.981453	Bridge
-5.884543	Bridgeport
-5.884543	Bridges
-5.884543	Brief
-5.884543	Brien
-5.583513	Brigade
-5.884543	Brigadier
-5.884543	Briggs
-5.884543	Brighetti
-5.106391	Bright
-5.583513	Bright's
-5.884543	Brinsley
-5.407422	Brisbane
-5.583513	Bristol
-4.353064	Britain
-5.583513	Britain's
-5.884543	Britannic
-5.884543	Britannica
-5.884543	Britches
-4.251074	British
-5.583513	Brittany
-5.583513	Broad
-4.981453	Broadway
-5.884543	Brodbeck
-5.884543	Broiled
-5.884543	Bromley
-5.884543	Bronislaw
-5.407422	Bronx
-5.884543	Brooding
-5.884543	Brook
-5.884543	Brooke
-5.583513	Brookfield
-5.106391	Brooklyn
-4.9303	Brooks
-5.884543	Broome
-5.884543	Brother
-5.583513	Brothers
-5.407422	Broun
-3.945024	Brown
-4.562324	Brown's
-5.884543	Brownapopolus
-5.884543	Browne
-5.884543	Brownell
-5.884543	Browning
-5.583513	Brownlow
-5.884543	Bruce
-5.282483	Bruckner
-5.407422	Bruckner's
-5.884543	Bruegel
-4.84315	Brumidi
-5.106391	Brumidi's
-5.884543	Brumidi-Costaggini
-5.884543	Bruno
-5.583513	Brush
-5.884543	Brush-off
-5.884543	Brush-off's
-5.884543	Brussels
-5.884543	Bruxelles
-4.981453	Bryan
-5.884543	Bryan's
-5.583513	Bryn
-5.884543	Buber
-5.884543	Buber-think
-5.884543	Bucer
-5.884543	Buchanan
-4.770599	Buck
-5.884543	Buck's
-5.884543	Buckenham
-5.884543	Buckets
-5.884543	Buckhorn's
-5.884543	Buckley
-5.884543	Buckman
-5.583513	Buckra
-5.884543	Bucks
-5.884543	Bud
-5.884543	Budapest
-5.185573	Budd
-5.185573	Buddha
-5.583513	Buddhism
-5.583513	Budget
-5.884543	Budgeting
-5.884543	Budweisers
-5.884543	Budzyn
-5.884543	Buell's
-5.884543	Buena
-5.884543	Buenas
-5.884543	Bueno
-5.884543	Buffalo
-5.884543	Bug
-5.884543	Bugatti
-5.583513	Bugs
-5.583513	Buick
-5.884543	Builder
-5.039445	Building
-5.884543	Bulge
-4.84315	Bulletin
-5.583513	Bullets
-5.884543	Bullfinch
-5.884543	Bullshit
-5.884543	Bully
-5.583513	Bumblebees
-5.884543	Bunch
-5.884543	Bunks
-5.884543	Bunyan
-5.884543	Burbank
-5.583513	Burch
-5.884543	Burch's
-5.884543	Burckhardt
-4.680423	Bureau
-5.583513	Buren
-5.884543	Burford
-5.884543	Burger
-5.884543	Burgesses
-5.884543	Burghardt
-5.884543	Burghley
-5.884543	Burgundian
-5.282483	Burgundy
-5.884543	Burial
-5.407422	Burke
-5.884543	Burke's
-5.884543	Burkette
-5.884543	Burle
-5.884543	Burleson
-5.884543	Burlingame
-5.583513	Burlingham
-5.884543	Burly
-4.9303	Burma
-5.884543	Burmans
-5.407422	Burmese
-5.583513	Burnet
-5.884543	Burnham
-5.583513	Burning
-5.039445	Burns
-5.884543	Burns's
-5.106391	Burnside
-5.282483	Burnside's
-5.185573	Burnsides
-5.884543	Burnsides'
-5.185573	Burr
-5.884543	Burr's
-5.884543	Bursting
-5.884543	Burt
-4.708451	Burton
-5.583513	Burton's
-5.583513	Bury
-5.407422	Bushell
-5.884543	Bushes
-4.562324	Business
-5.884543	Businesses
-5.884543	Businessmen
-5.884543	Bustard
-2.946524	But
-5.185573	Butcher
-5.884543	Butte
-5.884543	Button's
-5.884543	Buy
-4.981453	Buzz
-5.884543	Buzz's
-3.747822	By
-5.884543	By-the-Sea
-5.884543	By-word
-5.884543	Bye
-5.407422	Byrd
-5.583513	Byrnes
-4.805361	Byron
-5.282483	Byron's
-5.884543	Byronism
-5.884543	Bystrzyca
-5.583513	Byzantine
-3.863353	C
-5.185573	C'
-5.583513	C'est
-5.282483	C'mon
-5.884543	C'un
-4.981453	C-plane
-4.282483	C.
-5.583513	C.C.B.
-5.884543	CB
-5.884543	CCC
-5.884543	CD
-5.583513	CH
-5.884543	CJS
-5.884543	CODE,DTF
-5.583513	CONELRAD
-5.884543	CSF
-5.185573	CTCA
-5.583513	Cabinet
-5.884543	Cable
-5.884543	Cabot
-5.884543	Cabot's
-5.282483	Cabrini
-5.884543	Caddy
-5.282483	Cadillac
-4.453179	Cady
-5.407422	Caesar
-5.407422	Cafe
-5.884543	Cafritz
-5.884543	Cagayan
-5.884543	Cain
-5.884543	Cairns
-5.884543	Caius
-5.884543	Cal
-5.884543	Cal-Neva
-5.583513	Calabria
-5.583513	Calamity
-5.884543	Calcium
-5.884543	Calculations
-5.282483	Calcutta
-5.583513	Calder
-5.884543	Caldwell
-5.884543	Caldwell's
-5.185573	Calenda
-5.407422	Calf
-4.884543	Calhoun
-5.884543	Calhoun's
-5.282483	Calif.
-4.353064	California
-5.884543	Californians
-5.884543	Caligula
-5.884543	Calimala
-5.106391	Call
-5.884543	Callas
-5.884543	Called
-5.884543	Calloused
-5.884543	Calmly
-5.407422	Calvin
-5.884543	Cam
-5.282483	Camaret
-4.9303	Cambridge
-5.884543	Cambridgeport
-5.583513	Camden
-5.884543	Came
-5.884543	Camels
-5.884543	Cameron
-5.884543	Camilla
-5.185573	Camp
-5.884543	Campaign
-5.407422	Campbell
-5.884543	Campus
-4.583513	Can
-4.654094	Can't
-4.84315	Canada
-5.583513	Canadian
-5.884543	Canadian's
-5.884543	Canadians
-5.583513	Canal
-5.884543	Cancer
-5.884543	Candide
-5.884543	Candy
-5.884543	Caneli
-5.884543	Canneries
-5.884543	Cannibal
-5.884543	Canning
-5.884543	Canoe
-5.884543	Canon
-5.884543	Canterbury
-5.884543	Canticle
-5.583513	Cantor
-5.884543	Canute
-5.407422	Canyon
-5.039445	Cap
-5.884543	Capable
-5.185573	Cape
-5.884543	Capek's
-5.884543	Capellan
-5.884543	Capistrano
-5.282483	Capital
-5.583513	Capitalism
-5.106391	Capitol
-5.884543	Capone
-5.884543	Capote
-4.805361	Cappy
-5.884543	Cappy's
-5.884543	Capricorn
-4.393181	Captain
-5.884543	Captain's
-5.583513	Car
-5.884543	Carausius
-5.884543	Caravaggio
-5.185573	Caravan
-5.884543	Caravan's
-5.583513	Carboloy
-5.583513	Carbon
-5.884543	Cardboard
-5.884543	Cardinal
-5.884543	Cardiovasculatory
-5.884543	Cards
-5.407422	Carefully
-5.884543	Cargill's
-5.282483	Caribbean
-4.393181	Carl
-5.282483	Carl's
-4.770599	Carla
-5.583513	Carla's
-4.422145	Carleton
-5.884543	Carleton's
-5.884543	Carletonian
-5.884543	Carlisle
-5.583513	Carlson
-5.884543	Carlyle's
-5.583513	Carmack
-4.884543	Carmer
-5.407422	Carmer's
-5.884543	Carmichael
-5.583513	Carmody
-5.884543	Carnarvon's
-5.583513	Carnegie
-5.884543	Carnegie-Illinois
-5.884543	Carneigie
-5.884543	Carnochan
-5.407422	Caroli
-4.738415	Carolina
-5.884543	Carolinas
-5.884543	Carolingian
-5.884543	Carolinians
-5.884543	Carpathians
-5.583513	Carpenter's
-5.884543	Carpenters
-5.884543	Carrara
-5.407422	Carraway
-5.884543	Carre
-5.884543	Carrie
-5.884543	Carried
-5.884543	Carrier
-5.884543	Carroll
-5.884543	Carrozza
-5.407422	Carruthers
-5.884543	Carrying
-5.407422	Cars
-5.884543	Carsten
-5.282483	Carter
-5.884543	Carters
-5.884543	Cartesian
-5.884543	Carthage
-5.884543	Carthago
-5.884543	Cartoons
-5.884543	Caruso
-5.583513	Carvalho
-5.884543	Carving
-5.583513	Carwood
-5.884543	Carwood's
-5.583513	Casanova
-5.884543	Casassa
-5.884543	Casca
-5.884543	Cascaded
-5.407422	Cascading
-5.583513	Case
-5.884543	Cases
-4.680423	Casey
-5.583513	Casey's
-5.884543	Cash
-5.884543	Cassiopeia
-5.583513	Castaneda
-5.884543	Castillo
-5.884543	Castles
-4.981453	Castro
-5.884543	Castro's
-5.884543	Castro-held
-5.884543	Cat
-5.583513	Catalog
-5.039445	Catatonia
-5.583513	Cate's
-5.407422	Catherine
-5.583513	Catherine's
-5.583513	Catherwood
-5.884543	Catheter
-4.9303	Catholic
-5.884543	Catholicism
-5.185573	Catholics
-4.605789	Cathy
-5.884543	Cathy's
-5.884543	Cats
-5.185573	Catskill
-5.282483	Catt
-5.884543	Cattle
-5.884543	Caucasian
-5.884543	Caucasus
-5.884543	Cause
-5.884543	Cautious
-5.583513	Cautiously
-5.884543	Cavallinis
-5.583513	Cavalry
-5.884543	Caves
-5.884543	Ceartaine
-5.583513	Cecilia
-5.884543	Cedric
-5.583513	Ceecee
-5.884543	Celie
-5.884543	Celie's
-5.884543	Cell
-5.884543	Cellist
-5.884543	Celso
-5.039445	Celtic
-5.884543	Cement
-5.407422	Cemetery
-5.884543	Cennini
-5.884543	Cennino
-5.583513	Census
-5.583513	Centennial
-4.84315	Center
-5.884543	Centigrade
-4.340475	Central
-5.583513	Central's
-5.884543	Centrale
-5.884543	Centrally
-4.9303	Century
-5.884543	Cepheus
-4.981453	Certain
-4.84315	Certainly
-5.583513	Cestre
-5.583513	Ceylon
-5.884543	Cezanne
-5.884543	Cezanne's
-5.407422	Ch.
-5.884543	Chadroe
-5.583513	Chadwick
-5.884543	Chahar
-5.583513	Chaikoff
-5.185573	Chairman
-5.884543	Chairs
-5.884543	Chalmers
-5.884543	Chalon-sur-Saone
-5.282483	Chamber
-5.884543	Chamberlain
-5.407422	Chambers
-5.884543	Champ
-5.583513	Champs
-5.884543	Chance
-5.407422	Chancellor
-5.884543	Chancellorsville
-5.106391	Chandler
-5.884543	Chandler's
-5.884543	Change
-5.407422	Changes
-5.583513	Changing
-5.407422	Channel
-5.583513	Channel-type
-4.981453	Chapel
-5.583513	Chaplain
-5.884543	Chappell
-4.453179	Chapter
-5.282483	Chapters
-5.884543	Character
-5.884543	Characteristically
-5.884543	Characteristics
-5.884543	Charcoal
-5.884543	Charge
-5.884543	Charity
-4.152149	Charles
-5.282483	Charles'
-5.884543	Charles's
-5.884543	Charleston
-5.884543	Charley
-4.282483	Charlie
-5.583513	Charlie's
-4.9303	Charlotte
-5.407422	Charlotte's
-5.583513	Charlottesville
-5.884543	Charming
-5.884543	Charnock
-5.185573	Chart
-5.407422	Charter
-5.884543	Charters
-5.583513	Chartres
-5.282483	Chase
-5.583513	Chateau
-5.583513	Chattanooga
-5.884543	Chaucer
-5.884543	Chaves
-5.407422	Chavez
-5.884543	Chavez'
-5.583513	Chavis
-5.884543	Cheap
-5.884543	Cheat
-5.407422	Check
-5.884543	Cheerful
-5.884543	Chehel
-5.583513	Chekhov
-5.884543	Chelmno
-5.884543	Chemical
-5.282483	Chemische
-5.884543	Cherokee
-5.884543	Ches
-5.884543	Chesapeake
-5.884543	Chesly
-5.884543	Chesterton
-5.407422	Chestnut
-5.884543	Chevalier
-5.884543	Chewing
-5.583513	Cheyenne
-5.583513	Cheyennes
-5.884543	Chiang
-5.884543	Chiaromonte
-5.884543	Chiba
-4.453179	Chicago
-5.282483	Chicago's
-5.884543	Chicagoans
-5.407422	Chicken
-5.884543	Chickens
-5.884543	Chico
-4.54212	Chief
-5.583513	Chief's
-5.407422	Chiefs
-5.884543	Chieftains
-5.884543	Chieti
-5.884543	Child's
-5.884543	Childe
-5.185573	Childhood's
-4.981453	Children
-5.884543	Children's
-4.84315	China
-5.884543	Chinaman
-4.981453	Chinese
-5.185573	Ching
-5.884543	Chion
-5.884543	Chipping
-5.884543	Chlorothiazide
-5.407422	Choir
-5.884543	Chopin
-4.805361	Chris
-5.884543	Chrissake
-4.54212	Christ
-4.605789	Christ's
-5.884543	Christ-like
-5.884543	Christendom
-4.24109	Christian
-4.9303	Christiana
-5.039445	Christianity
-5.185573	Christians
-5.583513	Christians'
-5.583513	Christiansen
-5.583513	Christie
-4.680423	Christmas
-5.583513	Christmastime
-5.282483	Christopher
-5.884543	Christophers'
-5.884543	Christsake
-5.884543	Christy
-5.583513	Chromatography
-5.884543	Chromium
-5.884543	Chronicles
-5.884543	Chrysler
-5.884543	Chrysler's
-5.884543	Chuck
-4.353064	Church
-5.884543	Church's
-4.9303	Churchill
-5.884543	Churchill's
-5.583513	Churchyard
-5.884543	Ciao
-5.583513	Cigarette
-5.884543	Cimabue
-5.884543	Cimabue's
-5.583513	Cincinnati
-5.884543	Cipolla
-5.884543	Circuit
-5.282483	Circular
-5.407422	Circumstance
-5.884543	Circumstances
-5.583513	Citing
-5.583513	Citizen
-5.407422	Citizens
-5.583513	Citizens'
-4.251074	City
-5.583513	Civic
-4.486603	Civil
-5.185573	Civilization
-5.884543	Claim
-5.039445	Claims
-4.708451	Claire
-5.884543	Clapping
-5.884543	Clara
-5.884543	Clare
-5.583513	Clarence
-4.805361	Clark
-5.884543	Clarke's
-5.884543	Clasping
-4.981453	Class
-5.884543	Classic
-5.884543	Classicist
-5.884543	Classified
-5.407422	Claude
-5.884543	Claus
-4.884543	Clay
-4.562324	Clayton
-5.407422	Clayton's
-5.884543	Clean
-5.583513	Cleaned
-5.884543	Cleaning
-5.884543	Cleanth
-4.9303	Clearly
-5.884543	Cleburne's
-5.884543	Clemence
-5.583513	Clemenceau
-5.583513	Clemens'
-5.583513	Clemente
-5.583513	Clements
-5.884543	Cleota's
-5.884543	Clericis
-4.981453	Cleveland
-5.583513	Clifford
-5.884543	Clifton
-5.884543	Climbing
-5.407422	Clinico-pathologic
-5.884543	Clive
-5.884543	Close
-5.884543	Closed
-5.407422	Closely
-5.884543	Closer
-5.884543	Clostridium
-5.884543	Cloth
-5.884543	Clothes
-5.407422	Cloud
-5.282483	Clouds
-5.884543	Clov
-4.437385	Club
-5.884543	Clubhouse
-5.583513	Clumps
-5.583513	Clurman
-5.884543	Clyde
-5.884543	Clyfford
-5.583513	Co
-5.884543	Co-cola
-5.884543	Co-op
-5.583513	Co-operative
-4.884543	Co.
-5.407422	Coal
-4.981453	Coast
-5.583513	Coates
-4.62927	Cobb
-5.884543	Cobb's
-5.884543	Coble
-5.884543	Coca-Cola
-5.583513	Coddington
-4.738415	Code
-5.884543	Codification
-5.884543	Coeditors
-5.884543	Coffee
-5.884543	Coffee-House
-5.884543	Cohen
-5.583513	Cohn
-5.583513	Coke
-5.407422	Col.
-5.884543	Colcord
-5.583513	Colcord's
-5.039445	Cold
-5.884543	Colefax
-5.884543	Coleman
-5.884543	Coleridge
-5.583513	Coleridge's
-5.884543	Colfax
-5.884543	Collected
-5.884543	Collection
-5.884543	Collector
-5.884543	Collector's
-4.203301	College
-5.884543	College's
-5.884543	Collegiate
-5.583513	Collingwood
-5.884543	Collins
-5.884543	Collyer
-5.884543	Colmans
-5.583513	Colo.
-5.039445	Cologne
-5.884543	Colombia
-5.884543	Colombian
-4.708451	Colonel
-5.282483	Colonial
-5.884543	Colonna
-5.884543	Colonus
-5.282483	Colorado
-5.583513	Colored
-5.884543	Colors
-5.583513	Colosseum
-5.282483	Colt
-5.583513	Colts
-4.84315	Columbia
-5.106391	Columbus
-5.039445	Column
-5.407422	Columns
-5.884543	Colvin's
-5.884543	Combe
-5.583513	Combellack
-5.884543	Combined
-4.353064	Come
-5.583513	Comedy
-5.884543	Comend
-5.407422	Comes
-5.884543	Comfortably
-5.884543	Comics
-5.884543	Comin'
-5.282483	Coming
-5.884543	Comique
-4.84315	Command
-5.407422	Commander
-5.884543	Commander-in-Chief
-5.884543	Commanders
-5.583513	Commanding
-5.884543	Commands
-5.884543	Commencing
-5.884543	Comment
-5.884543	Commentaries
-5.407422	Commentary
-5.884543	Comments
-5.884543	Commercants
-4.562324	Commerce
-5.884543	Commercial
-5.884543	Commissary
-4.176972	Commission
-5.583513	Commissioner
-5.884543	Commissioners
-5.583513	Commissions
-4.340475	Committee
-5.407422	Committeemen
-5.884543	Committees
-5.884543	Commodities
-5.884543	Commodity
-5.407422	Commodore
-5.039445	Common
-5.407422	Commons
-5.583513	Commonweal
-5.282483	Commonwealth
-5.884543	Commune
-5.407422	Communication
-5.884543	Communion
-5.106391	Communism
-4.738415	Communist
-5.884543	Communistic
-5.185573	Communists
-4.9303	Community
-5.884543	Compagnie
-4.353064	Company
-5.583513	Company's
-5.884543	Comparable
-5.884543	Compared
-5.884543	Compassionately
-5.884543	Competitive
-5.884543	Competitors
-5.583513	Compeyson
-5.884543	Compilation
-5.583513	Compiler
-5.884543	Complementing
-5.583513	Complete
-5.884543	Completing
-4.562324	Completion
-5.282483	Completions
-5.884543	Complex
-5.884543	Complicity
-5.884543	Complying
-5.884543	Components
-5.884543	Composite
-5.884543	Comprehensive
-5.884543	Compression
-5.884543	Compromise
-5.282483	Compson
-5.407422	Comptroller
-5.583513	Computation
-5.583513	Computing
-5.884543	Comroe
-5.583513	Conan
-5.884543	Conant
-5.884543	Conceivably
-5.884543	Conceived
-5.884543	Concepts
-5.407422	Concerning
-5.583513	Concert
-5.884543	Concertante
-5.884543	Concerto
-5.884543	Concetta
-5.583513	Concetta's
-5.185573	Conchita
-5.884543	Concluding
-5.583513	Concord
-5.884543	Concorde
-5.583513	Concrete
-5.884543	Condensation
-5.583513	Condition
-5.884543	Conditions
-5.884543	Condliffe
-5.884543	Conduct
-5.884543	Conduit
-5.583513	Conestoga
-5.884543	Confabulation
-5.185573	Confederacy
-4.884543	Confederate
-5.407422	Confederation
-4.62927	Conference
-5.583513	Conferences
-5.884543	Confession
-5.884543	Confessions
-5.884543	Confronted
-5.884543	Confucius
-5.884543	Confused
-5.884543	Confuted
-4.738415	Congo
-5.884543	Congregational
-5.583513	Congregational-Baptist
-5.583513	Congregationalist
-5.407422	Congregationalists
-3.976058	Congress
-5.407422	Congress'
-5.282483	Congressional
-5.185573	Congressman
-5.884543	Congressmen
-5.884543	Conn.
-5.884543	Conneaut
-4.884543	Connecticut
-5.884543	Connections
-5.884543	Connell
-5.884543	Connolly's
-5.884543	Connor
-5.884543	Conquest
-5.884543	Conquete
-5.039445	Conrad
-5.583513	Conrad's
-5.884543	Conscience
-4.9303	Consequently
-5.884543	Conservation
-5.884543	Conservatism
-4.84315	Consider
-5.884543	Considerable
-5.884543	Considered
-5.185573	Considering
-5.884543	Consitutional
-5.884543	Consonantal
-5.185573	Constable
-5.884543	Constable's
-5.884543	Constance
-5.884543	Constant
-5.884543	Constantin
-5.583513	Constantine
-5.884543	Constantino
-5.583513	Constantinople
-4.379393	Constitution
-5.407422	Constitutions
-5.583513	Construction
-5.106391	Contact
-5.884543	Contacts
-5.884543	Containment
-5.884543	Content
-5.884543	Context
-5.407422	Continent
-5.282483	Continental
-5.407422	Continuation
-5.407422	Continuing
-5.884543	Continuity
-5.583513	Continuous
-5.884543	Contract
-5.884543	Contraction
-5.884543	Contractors'
-5.884543	Contradictions
-5.407422	Contrary
-4.9303	Control
-5.884543	Controls
-5.407422	Convention
-5.583513	Conventional
-5.407422	Conversely
-5.884543	Converts
-5.884543	Convinced
-5.407422	Convocation
-5.884543	Convocations
-5.884543	Convulsively
-5.884543	Conway
-5.407422	Conyers'
-4.680423	Cook
-5.884543	Cook's
-5.884543	Cooked
-5.583513	Cool
-4.522815	Coolidge
-5.583513	Coolidge's
-5.407422	Coolidges
-5.583513	Coolidges'
-5.106391	Coombs
-5.407422	Coons
-4.84315	Cooper
-5.583513	Cooper's
-5.583513	Cooperation
-5.583513	Cooperative
-5.106391	Cooperatives
-5.583513	Coopers
-5.884543	Coordination
-5.884543	Cop
-5.884543	Copeland
-4.981453	Copernican
-4.770599	Copernicus
-5.106391	Copernicus'
-5.884543	Copernicus-the-astronomer
-5.884543	Copley
-5.884543	Corault
-5.884543	Corbin
-5.884543	Corcoran
-5.884543	Cordier's
-5.884543	Core
-5.884543	Corinth
-5.407422	Corinthian
-5.884543	Coriolanus
-5.884543	Corn
-5.583513	Corne
-5.583513	Cornell
-5.884543	Cornell-Dubilier
-5.884543	Corner
-5.884543	Corning
-5.583513	Cornwallis
-5.583513	Corollary
-5.884543	Coronation
-5.884543	Coroner
-5.884543	Corp.
-5.583513	Corporal
-4.884543	Corporation
-5.407422	Corporations
-4.128668	Corps
-5.884543	Corrections
-5.884543	Correggio
-5.884543	Correlations
-5.884543	Correlatively
-5.884543	Correspondence
-5.884543	Corsi
-5.407422	Cortlandt
-5.884543	Cosmo
-5.407422	Cossack
-5.282483	Cossacks
-5.282483	Cost
-5.039445	Costaggini
-5.884543	Costaggini's
-5.583513	Costs
-5.884543	Cotter's
-5.407422	Cotton
-5.884543	Cotton's
-5.106391	Coughlin
-5.884543	Coughlin's
-4.654094	Could
-5.583513	Couldn't
-4.407422	Council
-5.583513	Council's
-5.583513	Councils
-5.583513	Counsel
-5.884543	Counseling
-5.282483	Count
-5.407422	Counties
-5.407422	Countries
-5.583513	Country
-4.453179	County
-5.884543	Coupal
-5.884543	Couple
-5.884543	Courier-Journal
-5.407422	Courses
-4.078363	Court
-5.106391	Court's
-5.884543	Court-packing
-5.282483	Courtenay
-5.407422	Courtier
-5.884543	Courtrai
-5.282483	Courts
-4.304759	Cousin
-5.884543	Cove
-5.884543	Coventry
-5.884543	Cover
-5.583513	Coverage
-5.583513	Covington
-5.884543	Cow
-5.583513	Coward
-5.884543	Cowbird
-5.583513	Cowley
-5.884543	Cowrtiers
-5.884543	Cows
-5.884543	Cox
-5.884543	Coyotes
-5.884543	Cozen
-5.407422	Cr
-5.884543	Cr--spe
-5.884543	Craddock
-5.583513	Cradle
-5.884543	Craig
-5.884543	Craig's
-5.884543	Cramer
-5.583513	Crane
-5.884543	Crane's
-4.981453	Cranston
-5.884543	Craven
-5.884543	Crawford
-5.583513	Crazy
-5.884543	Creamery
-5.407422	Creator
-4.9303	Credit
-5.884543	Creed
-5.185573	Creek
-5.884543	Creepers
-5.884543	Creighton
-5.884543	Creon
-5.884543	Crescent
-5.884543	Cricket
-5.407422	Cried
-5.884543	Crimea
-5.583513	Crimean
-5.884543	Criminals
-5.583513	Crip
-5.185573	Crisis
-5.884543	Cristo
-5.884543	Criterion
-5.407422	Critical
-5.185573	Criticality
-5.884543	Critically
-5.884543	Criticism
-5.407422	Crittenden
-4.84315	Crombie
-5.884543	Crombie's
-4.62927	Cromwell
-5.884543	Cromwell's
-5.884543	Crosby
-5.884543	Crosby's
-5.884543	Crosbys
-5.282483	Cross
-5.583513	Crosson
-5.583513	Crosson's
-5.407422	Crouch
-5.884543	Crouch's
-5.884543	Crowd
-5.583513	Crowder
-5.583513	Crowds
-5.583513	Crown
-5.884543	Crows
-5.884543	Croydon
-5.884543	Cruel
-5.407422	Crumb
-5.884543	Crumley
-5.884543	Crusades
-5.884543	Cryptic
-5.185573	Crystal
-5.407422	Crystallographic
-5.884543	Crystallography
-5.884543	CuK**ya
-4.504332	Cuba
-5.884543	Cuba's
-5.039445	Cuban
-4.84315	Cubism
-5.185573	Cubist
-5.884543	Cuddleback
-5.884543	Cudkowicz
-5.282483	Cultural
-5.884543	Culturally
-5.583513	Culture
-5.884543	Cultures
-5.583513	Culver
-5.884543	Culvers
-5.583513	Cumberland
-5.884543	Cumulative
-5.185573	Cunningham
-5.583513	Cunningham's
-5.407422	Cupply
-5.407422	Curia
-5.884543	Curiae
-5.884543	Curie-Weiss
-5.884543	Curious
-5.884543	Curiously
-5.884543	Curly
-5.185573	Currency
-5.407422	Current
-5.884543	Cursed
-5.884543	Cursing
-4.393181	Curt
-4.981453	Curt's
-5.884543	Curtin
-5.884543	Curtiss
-5.407422	Cury
-5.282483	Curzon
-5.884543	Cusa
-5.884543	Customer
-5.884543	Customhouse
-5.583513	Cut
-5.583513	Cutting
-5.884543	Cyclades
-5.884543	Cycly
-5.407422	Cynewulf
-5.884543	Cynical
-5.884543	Cynthia
-5.583513	Cyrus
-5.884543	Czar
-5.583513	Czarina
-5.407422	Czarina's
-5.884543	Czarship
-5.407422	Czechoslovakia
-5.884543	Czerny
-4.293478	D
-5.185573	D'
-5.884543	D'Arlay
-5.884543	D'Aumont
-5.884543	D-night
-4.562324	D.
-5.583513	D.A.
-4.680423	D.C.
-5.884543	D.J.
-5.884543	D8
-5.106391	DA
-5.106391	DC
-5.583513	DEAE
-4.9303	DEAE-cellulose
-5.884543	DEAE-cellulose-treated
-5.039445	DIOCS
-5.407422	DLINE
-5.407422	DRDW
-5.884543	DSM
-5.583513	DSW
-5.407422	DTF
-5.884543	DU
-5.185573	DUF
-5.039445	Da
-5.884543	Da-da-da-dum
-5.884543	Dactyls
-4.805361	Dad
-5.884543	Daddy
-5.884543	Daddy's
-5.884543	Dag
-4.583513	Daily
-5.407422	Dakota
-5.282483	Dale
-5.884543	Daley
-5.583513	Dallas
-5.407422	Dalloway
-5.583513	Dalton
-5.884543	Daly
-5.884543	Damas
-5.884543	Damascus
-5.282483	Dammit
-5.185573	Damn
-5.583513	Damned
-5.884543	Damon
-5.884543	Damp
-5.884543	Dams
-4.504332	Dan
-5.407422	Dan's
-5.583513	Dana
-5.407422	Dana's
-5.884543	Dances
-5.884543	Danchin
-5.583513	Dancing
-4.708451	Dandy
-5.884543	Dandy's
-5.884543	Dane
-5.407422	Danes
-5.884543	Danger
-5.583513	Dangerous
-5.884543	Dangling
-5.106391	Daniel
-5.583513	Daniels
-5.884543	Danish
-5.884543	Danny
-5.583513	Dante
-5.884543	Dante's
-5.583513	Danube
-5.884543	Daphne
-5.884543	Dappertutto
-5.884543	Dare-Base
-4.884543	Dark
-5.884543	Darkling
-5.039445	Darling
-5.884543	Darling's
-5.884543	Darn
-5.407422	Dartmouth
-5.884543	Darwen
-5.884543	Darwin's
-5.583513	Darwinism
-5.884543	Das
-5.407422	Dashiell
-5.884543	Dashwood
-4.84315	Data
-5.884543	Date
-5.884543	Daughter
-5.884543	Dauphine
-5.884543	Davao
-4.605789	Dave
-5.884543	Dave's
-4.453179	David
-5.407422	David's
-5.884543	Davidson
-5.583513	Davidson's
-4.84315	Davis
-5.583513	Davis'
-5.407422	Dawn
-4.379393	Day
-5.884543	Day's
-5.583513	Days
-5.884543	Daytime
-5.884543	Dazed
-4.293478	De
-5.884543	De-Kooning
-5.884543	DeGroot
-5.884543	DeMontez
-5.407422	Deacon
-5.884543	Deacons
-5.884543	Deactivation
-5.039445	Dead
-5.106391	Deal
-5.583513	Dealing
-4.805361	Dean
-5.583513	Dean's
-5.884543	Deans
-5.106391	Dear
-5.884543	Dearborn
-5.884543	Dearie
-5.884543	Dearly
-5.185573	Death
-5.583513	Death's-Head
-5.407422	Debate
-5.884543	Debating
-5.583513	Debora
-5.884543	Debts
-5.583513	Dec.
-5.884543	Decay
-4.304759	December
-5.884543	Deciding
-5.884543	Decisions
-4.738415	Declaration
-5.583513	Declarative
-5.884543	Declinations
-5.884543	Deductible
-5.407422	Deduction
-4.54212	Deegan
-5.583513	Deegan's
-5.106391	Deep
-5.884543	Deer
-5.884543	Defence
-4.522815	Defense
-5.039445	Define
-5.884543	Defining
-5.884543	Definite
-5.407422	Definition
-5.407422	Defoe
-5.884543	Defrost
-5.407422	Dei
-5.884543	Deity
-5.884543	Del
-5.884543	Delancy
-4.583513	Delaware
-5.884543	Delegates'
-5.407422	Delhi
-5.884543	Delia
-5.583513	Deliberately
-5.884543	Delivery
-5.884543	Dell'Arca
-5.583513	Della
-5.884543	Dellwood
-5.884543	Delmore
-4.805361	Delphine
-5.583513	Delphine's
-5.583513	Delta
-5.884543	Demagogues
-5.884543	Demand
-5.583513	Demanded
-5.884543	Demetrius
-5.583513	Democracy
-5.185573	Democrat
-4.654094	Democratic
-5.884543	Democratique
-4.805361	Democrats
-5.884543	Demodocus
-5.884543	Demographie
-5.884543	Demon's
-5.884543	Demonstrations
-5.884543	Denmark
-5.884543	Dennis
-5.583513	Denny
-5.884543	Denny's
-5.884543	Dent
-5.282483	Denver
-5.884543	Deor
-3.91606	Department
-5.106391	Department's
-5.884543	Depending
-5.884543	Depicted
-5.884543	Deportees
-4.9303	Depot
-5.583513	Deppy
-5.884543	Depression
-5.884543	Dept.
-5.282483	Deputy
-5.884543	Derby
-5.884543	Dervish
-5.407422	Des
-5.583513	Descartes
-5.884543	Descent
-5.884543	Description
-5.884543	Descriptive
-5.185573	Desegregation
-5.407422	Desert
-5.583513	Design
-5.884543	Designs
-5.583513	Deslonde
-5.884543	Desperately
-5.884543	Despina
-5.884543	Despising
-4.54212	Despite
-5.884543	Desprez
-5.884543	Destroyer
-5.884543	Destruction
-5.884543	Detached
-5.884543	Detail
-5.583513	Detailed
-5.583513	Detective
-5.884543	Detergent
-4.738415	Determine
-5.106391	Detroit
-5.884543	Deus
-5.884543	Deutsch
-5.884543	Develop
-5.884543	Developing
-4.738415	Development
-5.884543	Developments
-5.583513	Devery
-5.185573	Devey
-5.884543	Devey's
-5.282483	Devil
-5.884543	Devil's
-5.407422	Devol
-5.884543	Devoted
-5.884543	Devout
-5.884543	Dewey
-5.884543	Dexter
-5.884543	Dharma
-4.981453	Di
-5.884543	DiGiorgio
-5.884543	DiLuzio
-5.884543	DiMaggio
-5.884543	Diagnoses
-5.884543	Diagnosis
-5.884543	Dialogues
-5.884543	Diametric
-5.884543	Dian's
-5.185573	Diana
-5.884543	Diane
-5.884543	Diane's
-5.583513	Dice
-5.185573	Dick
-5.884543	Dick's
-5.884543	Dicke
-4.738415	Dickens
-5.583513	Dickens'
-5.884543	Dickinson
-5.884543	Dictionaries
-5.583513	Dictionary
-4.221785	Did
-5.884543	Didi
-5.039445	Didn't
-5.583513	Die
-5.185573	Diego
-5.884543	Dies
-5.884543	Diet
-5.884543	Dietary
-5.884543	Diets
-5.884543	Dieux
-5.282483	Different
-5.884543	Differential
-5.884543	Difficult
-5.884543	Dig
-5.039445	Digby
-5.884543	Digby's
-5.583513	Digest
-4.84315	Dill
-5.407422	Dill's
-5.884543	Dillinger
-5.884543	Dilthey
-5.884543	Dilys
-5.884543	Dimes
-5.583513	Dimitri
-5.583513	Dimly
-5.884543	Dineen
-5.884543	Dingy-looking
-5.884543	Dinner
-5.884543	Dinsmore
-5.884543	Diodati
-5.884543	Dionigi
-5.583513	Dionysian
-5.884543	Dionysus
-5.884543	Diplomatic
-5.407422	Dipylon
-5.106391	Direct
-5.583513	Direction
-5.884543	Directly
-4.654094	Director
-5.884543	Directors
-5.407422	Directory
-5.884543	Dirion
-5.884543	Dirt
-5.884543	Dirty
-5.884543	Disadvantages
-5.884543	Disaffiliation
-5.884543	Disagreement
-5.884543	Disciplinary
-5.884543	Discours
-5.407422	Discourse
-5.884543	Discovering
-5.282483	Discussion
-5.884543	Discussions
-5.407422	Diseases
-5.884543	Dish
-5.884543	Dismounting
-5.884543	Disneyland
-5.884543	Disquisition
-5.884543	Dissect
-5.884543	Distally
-5.583513	Distances
-5.884543	Distinguished
-5.884543	Distribution
-4.32824	District
-5.884543	Districts
-5.884543	Ditch
-5.583513	Ditmars
-5.884543	Diversification
-5.884543	Diversity
-5.884543	Dives
-5.407422	Divide
-5.407422	Divine
-5.884543	Divine's
-4.437385	Division
-5.583513	Division's
-5.884543	Dixie
-5.884543	Dixieland
-5.583513	Dixon
-5.884543	Dizzy
-5.884543	Dnieper
-4.160267	Do
-4.981453	Doaty
-5.106391	Doaty's
-4.62927	Doc
-4.9303	Docherty
-5.185573	Doctor
-4.981453	Doctrine
-5.583513	Documents
-5.884543	Dodge's
-5.884543	Dodington
-5.884543	Doerner's
-4.680423	Does
-5.407422	Doesn't
-5.884543	Dog
-5.583513	Dogs
-4.9303	Dogtown
-5.884543	Dogumenti
-5.583513	Dolan
-5.282483	Dolly
-4.605789	Dolores
-5.583513	Dolphins
-5.884543	Domesday
-5.407422	Domestic
-5.884543	Domicilium
-5.583513	Domina
-5.407422	Dominant
-5.884543	Dominion
-5.884543	Dominique
-5.583513	Domokous
-5.282483	Don
-4.039445	Don't
-4.805361	Donald
-5.583513	Donaldson
-5.407422	Done
-5.282483	Donna
-5.407422	Donnay
-5.884543	Donner
-5.039445	Donovan
-5.583513	Dookiyoon
-5.884543	Dooley
-5.106391	Doolin
-5.884543	Doolin's
-5.583513	Doolittle
-5.884543	Doolittle's
-5.884543	Doors
-5.884543	Dora
-5.282483	Dorado
-5.583513	Doran
-5.884543	Dorcas
-5.884543	Dorens
-5.884543	Doria
-5.407422	Doric
-5.407422	Doris
-5.583513	Dorothy
-5.407422	Dorr
-4.981453	Dorset
-5.884543	Dos
-5.583513	Dostoevsky
-5.884543	Dostoevsky's
-5.884543	Double
-5.884543	Double-Figure
-5.884543	Doubt
-5.884543	Doubtless
-5.884543	Doug
-5.884543	Doughnuttery
-5.185573	Douglas
-4.9303	Douglass
-5.583513	Dover
-5.884543	Dow
-5.884543	Dow-Jones
-5.884543	Dowager
-5.106391	Dowex-2-chloride
-5.884543	Dowling's
-5.282483	Down
-5.884543	Downbeat
-5.884543	Downfall
-5.884543	Downs
-5.884543	Downtown
-5.884543	Doyle
-5.583513	Doyle's
-5.884543	Dozens
-4.185573	Dr.
-5.884543	Draco
-5.282483	Draft
-5.884543	Drag
-5.884543	Dragnet
-5.884543	Dragons
-5.884543	Dragoslav
-5.407422	Drain
-5.884543	Drake
-5.884543	Dramatic
-5.884543	Draw
-5.407422	Drawing
-5.884543	Dream
-5.884543	Dred
-5.884543	Dreiser
-5.884543	Dreiser's
-5.884543	Dreisers
-5.884543	Drenched
-5.884543	Dresses
-5.185573	Drew
-5.407422	Drexel
-5.583513	Drifting
-5.407422	Drink
-5.282483	Drive
-5.884543	Drive-in
-5.884543	Driven
-5.884543	Driving
-5.583513	Dronk
-5.884543	Dronk's
-5.884543	Drop
-5.884543	Dropping
-5.884543	Drug
-5.407422	Drunk
-5.884543	Drunkard's
-5.884543	Drunkenness
-5.884543	Drury
-5.884543	Dryer
-5.583513	Dryfoos
-5.884543	Dryfoos'
-5.583513	Drying
-4.176972	Du
-5.884543	DuVol
-5.884543	Duane
-5.884543	Dubin
-5.884543	Dublin
-5.583513	Ducking
-5.039445	Duclos
-5.884543	Due
-5.884543	Dufresne
-5.884543	Dufresne's
-5.039445	Duke
-5.884543	Dummkopf
-4.981453	Dumont
-5.884543	Dumpty
-5.407422	Dunkirk
-5.407422	Dunn
-5.884543	Dunn's
-5.884543	Dunn-Atherton
-5.282483	Dunne
-5.884543	Dunston
-5.884543	Duponts
-5.583513	Durer
-3.91606	During
-5.407422	Durkheim
-5.583513	Durkin
-5.884543	Dust
-5.106391	Dutch
-5.884543	Dutchess
-5.884543	Dutchman
-5.884543	Dutton
-5.884543	Duverger
-5.884543	Duyvil
-5.407422	Dwight
-5.884543	Dying
-4.84315	Dylan
-5.407422	Dynasts
-4.379393	E
-4.282483	E.
-5.884543	E.T.
-5.884543	EDMOV
-5.884543	EEAE-cellulose
-5.583513	EEG
-5.185573	EQU
-5.884543	ESN
-5.884543	EUMMELIHS
-5.583513	EWC
-4.015311	Each
-5.884543	Eades
-5.884543	Eagle's
-5.185573	Earl
-5.884543	Earlier
-4.62927	Early
-4.353064	Earth
-5.106391	Earth's
-5.884543	Earth-week
-5.884543	Earth-weeks
-5.185573	Earthmen
-5.884543	Earthmen's
-5.884543	Easily
-4.251074	East
-5.884543	East-West
-5.106391	Easter
-5.106391	Eastern
-5.884543	Easterners
-5.884543	Easthampton
-5.583513	Easy
-5.884543	Eating
-5.884543	Eats
-5.884543	Eben
-5.884543	Eber
-5.884543	Ecclesiastical
-5.583513	Eckenfelder
-5.884543	Ecole
-4.654094	Economic
-5.583513	Economics
-5.583513	Economy
-5.884543	Ecuador
-4.981453	Ed
-5.583513	Ed.
-4.486603	Eddie
-5.884543	Eddie's
-5.884543	Eddies
-5.884543	Eddyman
-5.106391	Eden
-5.884543	Edgar
-5.884543	Edge
-5.884543	Edgerton's
-5.884543	Edgewater
-5.407422	Edith
-5.884543	Editor
-5.884543	Editors
-5.884543	Edmonia
-5.884543	Edmund
-5.583513	Edna
-5.884543	Eduard
-4.738415	Education
-5.407422	Educational
-5.884543	Edw
-4.353064	Edward
-5.185573	Edward's
-5.884543	Edwardes
-5.884543	Edwards
-5.583513	Edwin
-5.884543	Edwina
-4.738415	Edythe
-5.583513	Edythe's
-5.884543	Effective
-5.884543	Efficiency
-5.884543	Effie
-5.583513	Efforts
-5.884543	Egalitarianism
-5.185573	Egypt
-5.282483	Eh
-5.583513	Eichmann
-5.106391	Eight
-5.583513	Eighteen
-5.583513	Eighteenth
-5.583513	Eighth
-5.884543	Eighties
-5.583513	Eighty-Four
-5.884543	Eighty-five
-4.504332	Eileen
-5.407422	Eileen's
-5.884543	Einsatzkommandos
-5.407422	Einstein
-5.583513	Einstein's
-5.884543	Einsteinian
-4.884543	Eisenhower
-5.185573	Eisenhower's
-5.407422	Either
-5.884543	Ejaculated
-5.884543	Ekaterinoslav
-4.469569	Ekstrohm
-5.884543	Ekstrohm's
-5.884543	Ekwanok
-5.185573	El
-5.884543	Elaborate
-4.605789	Elaine
-5.884543	Elaine's
-5.884543	Elba
-5.407422	Elbow
-5.282483	Elder
-5.884543	Eldest
-5.884543	Eleanor
-4.9303	Elec
-5.583513	Elec's
-5.884543	Elections
-5.884543	Elector
-5.884543	Electoral
-5.884543	Electress
-5.407422	Electric
-5.884543	Electric's
-5.282483	Electrical
-5.884543	Electrification
-5.884543	Electromyography
-5.884543	Electron
-5.884543	Electron-microscopical
-5.407422	Electronic
-5.884543	Electrostatic
-5.884543	Elegies
-5.884543	Elemental
-5.884543	Elementary
-5.407422	Elements
-5.407422	Elena
-5.884543	Eli
-5.583513	Eli's
-5.884543	Eligibility
-5.884543	Elijah
-5.884543	Eliminating
-5.407422	Elinor
-5.407422	Eliot
-5.884543	Eliot-or-Martin
-5.884543	Elisabeth
-5.884543	Elisha
-5.884543	Elite
-4.9303	Elizabeth
-5.185573	Elizabethan
-5.583513	Elizabethans
-5.884543	Ellamae
-5.282483	Ellen
-5.583513	Elliott
-5.884543	Ellis
-5.884543	Ellison's
-5.884543	Elman
-5.282483	Elmer
-5.884543	Eloi
-5.884543	Eloise
-5.884543	Elsewhere
-5.407422	Elsie
-5.583513	Elsinore
-5.583513	Eluard
-5.884543	Elvis
-5.583513	Elysees
-5.282483	Emancipation
-5.884543	Emanuel
-5.884543	Embarcadero
-5.583513	Embassy
-5.407422	Emergency
-5.282483	Emerson
-5.884543	Emerson's
-5.583513	Emigrant
-5.185573	Emile
-5.583513	Emile's
-5.884543	Emission
-4.981453	Emma
-5.583513	Emma's
-5.884543	Emmanuel
-5.185573	Emmett
-5.884543	Emmett's
-5.583513	Emotional
-5.583513	Emotionally
-5.583513	Empedocles
-5.407422	Emperor
-5.282483	Empire
-5.884543	Employee
-5.884543	Employees
-5.884543	Employer
-5.884543	Employers
-5.407422	Employment
-5.884543	Emptied
-5.884543	En
-5.884543	Encouraged
-5.583513	Encouraging
-5.106391	End
-5.884543	Endeavor
-5.884543	Endgame
-5.884543	Enemies
-5.884543	Energy
-5.884543	Enfield
-5.407422	Engineering
-5.282483	Engineers
-5.884543	Engisch
-4.015311	England
-5.282483	Englander
-5.407422	Englanders
-3.816357	English
-5.884543	English-Dutch
-5.884543	English-Scottish-French
-5.884543	English-born
-5.884543	English-speaking
-4.738415	Englishman
-5.282483	Englishmen
-5.884543	Englishy
-5.884543	Enjoy
-5.884543	Enoch
-5.884543	Enquirer
-5.583513	Enrico
-5.884543	Entirely
-5.884543	Entrance
-5.884543	Entries
-5.884543	Entry
-5.884543	Entwhistle
-5.407422	Enver
-5.884543	Environmental
-5.884543	Enzymatic
-5.884543	Eph
-5.884543	Ephesus
-5.884543	Epicurean
-5.884543	Epicurus
-5.884543	Epidemiological
-5.884543	Epigraph
-5.884543	Epiphany
-5.282483	Episcopal
-5.583513	Eq.
-5.884543	Equal
-5.884543	Equally
-5.884543	Equate
-5.884543	Equator
-5.583513	Equinox
-5.884543	Equivalents
-5.884543	Erasmus's
-5.884543	Erde
-5.884543	Erdmann's
-5.583513	Erdos
-5.583513	Eric
-5.407422	Erich
-5.583513	Erie
-5.884543	Erlenmeyer
-4.981453	Ernest
-4.708451	Ernie
-5.884543	Ernie's
-5.407422	Ernst
-4.9303	Eromonga
-5.583513	Eros
-5.884543	Errol
-5.884543	Errors
-5.884543	Erskine
-5.583513	Escape
-5.884543	Eshleman
-5.884543	Eskimo
-5.583513	Eskimos
-5.884543	Espanol
-5.407422	Especially
-5.884543	Esperanza
-5.583513	Esquire
-5.282483	Essentially
-5.282483	Essex
-5.282483	Estella
-5.884543	Estella's
-5.884543	Estep
-5.884543	Estes
-4.981453	Esther
-5.884543	Estherson
-5.583513	Estimated
-5.282483	Eta
-5.884543	Eternal
-5.884543	Eternity
-5.884543	Ethel
-5.583513	Ethics
-5.884543	Ethiopians
-5.884543	Etruscan
-5.884543	Etudes
-5.583513	Euclid's
-4.62927	Eugene
-5.583513	Eugene's
-4.708451	Eugenia
-5.884543	Eurasian
-5.884543	Euratom
-5.407422	Euripides
-4.033284	Europe
-5.884543	Europe's
-4.251074	European
-5.884543	Europeanish
-5.884543	Europeanization
-5.884543	Europeanized
-5.583513	Europeans
-5.583513	Eurydice
-5.407422	Evadna
-5.583513	Evaluation
-4.9303	Evans
-5.282483	Eve
-5.884543	Evelyn
-3.791121	Even
-5.407422	Evening
-5.884543	Evenings
-5.884543	Evensen
-5.884543	Events
-5.106391	Eventually
-4.9303	Ever
-5.884543	Everest
-5.884543	Everett
-5.884543	Evergreen
-4.340475	Every
-5.039445	Everybody
-4.738415	Everyone
-4.654094	Everything
-5.884543	Everything's
-5.583513	Everywhere
-5.583513	Evidence
-5.583513	Evidently
-5.583513	Evil
-5.884543	Evzone
-5.884543	Ewe
-5.884543	Ewen
-5.884543	ExPe
-5.583513	Exactly
-5.583513	Examination
-5.039445	Examiner
-5.185573	Example
-5.106391	Examples
-5.884543	Exboyfriend
-5.583513	Excellency
-5.884543	Excellent
-5.282483	Except
-5.884543	Exceptional
-5.884543	Exceptions
-5.106391	Exchange
-5.282483	Exchequer
-5.884543	Exclusive
-5.282483	Excuse
-5.884543	Execution
-5.583513	Executive
-5.884543	Exemption
-5.884543	Exhibited
-5.884543	Exhibition
-5.884543	Exhibits
-5.884543	Existentialism
-5.884543	Existentialists
-5.884543	Exodus
-5.583513	Expansion
-5.039445	Expectations
-5.884543	Expecting
-5.884543	Expedition
-5.884543	Expenditure
-5.583513	Expenditures
-5.407422	Experience
-5.407422	Experiment
-5.185573	Experimental
-5.884543	Experimentally
-5.106391	Experiments
-5.884543	Explicit
-5.407422	Exploration
-5.884543	Explorer
-5.884543	Export
-4.738415	Export-Import
-5.884543	Exposition
-5.407422	Express
-5.884543	Expressionism
-5.884543	Extending
-5.884543	Extension
-5.407422	Extensions
-5.583513	Extensive
-5.884543	Exterminatin'
-5.282483	External
-5.884543	Extractor
-5.884543	Extraordinary
-5.884543	Extrapolation
-5.884543	Extreme
-5.884543	Extruded
-5.407422	Eye
-4.884543	Eyes
-5.884543	Eyke
-5.884543	Ezra
-4.393181	F
-5.583513	F-108
-5.884543	F-major
-4.54212	F.
-5.583513	F.D.R.
-5.583513	F.R.
-5.884543	F.S.C.
-5.884543	F.Supp.235
-5.407422	FBI
-5.583513	FELA
-5.407422	FITC
-5.884543	FOREAMI
-5.884543	Fabricius
-5.884543	Fabrics
-5.884543	Faced
-5.884543	Facetious
-5.884543	Facilitatory
-5.884543	Facilities
-5.583513	Facing
-5.884543	Factories
-5.583513	Factors
-5.106391	Factory
-5.884543	Factory-to-You
-5.884543	Faculty
-5.884543	Fahey
-5.884543	Fahrenheit
-5.583513	Failing
-5.884543	Failure
-5.884543	Faint
-5.583513	Fair
-5.583513	Fair's
-5.583513	Fairbrothers
-5.583513	Fairfax
-5.884543	Fairly
-5.407422	Fairview
-5.884543	Fairy
-5.185573	Faith
-5.583513	Falcon
-5.884543	Fall
-5.884543	Falla's
-5.884543	Fallen
-5.583513	Falling
-5.282483	Falls
-5.884543	False
-5.884543	Falstaff
-5.583513	Fame
-5.407422	Families
-5.884543	Familism
-5.282483	Family
-5.884543	Fan
-5.884543	Faneuil
-5.884543	Fanny
-5.884543	Fanshawe
-5.884543	Fantasia
-4.981453	Far
-5.583513	Farewell
-5.884543	Farina
-4.884543	Farm
-5.583513	Farmer
-5.884543	Farmer-in-the-Dell
-5.407422	Farmers
-5.884543	Farmington
-5.884543	Farnese
-5.884543	Farneses
-5.884543	Farnum
-5.884543	Farnworth
-5.407422	Farrell
-5.884543	Farrells
-5.884543	Fascio-Communist
-5.583513	Fascism
-5.884543	Fascist
-5.583513	Fascists
-5.884543	Fashion
-5.583513	Fat
-5.407422	Fate
-4.884543	Father
-5.884543	Father-God
-5.039445	Fathers
-5.884543	Fatso
-4.583513	Faulkner
-4.9303	Faulkner's
-5.884543	Faulknerian
-5.884543	Fauntleroy
-5.282483	Faust
-5.583513	Faust's
-5.884543	Faustian
-5.583513	Faustus
-5.884543	Favor
-5.884543	Favour
-5.185573	Favre
-5.884543	Favre's
-5.884543	Fawcett
-5.407422	Fayette
-5.039445	Fe
-5.407422	Fear
-5.884543	Fear-maddened
-5.583513	Fearless
-4.805361	Feathertop
-5.583513	Feathertop's
-5.884543	Feature
-5.282483	Feb.
-4.504332	February
-3.847116	Federal
-5.884543	Federalist
-5.884543	Federals
-5.407422	Federation
-5.884543	Federico
-5.884543	Feds
-5.884543	Feebly
-5.884543	Feedback
-5.407422	Feeley
-5.282483	Feeling
-5.884543	Feelings
-5.282483	Felice
-5.884543	Felice's
-5.884543	Felicity
-4.469569	Felix
-5.583513	Felix's
-5.884543	Fella
-5.884543	Fellow
-5.185573	Fellows
-5.282483	Fellowship
-5.583513	Fellowships
-5.884543	Female
-5.884543	Ferber
-5.884543	Ferdinand
-5.106391	Ferguson
-5.583513	Ferguson's
-5.884543	Fergusson
-5.884543	Ferlenghetti
-5.583513	Ferraro
-5.407422	Ferraros
-5.407422	Ferrell
-4.981453	Ferry
-5.884543	Festival
-5.884543	Fetch
-5.583513	Fete
-5.884543	Feuermann
-5.884543	Feversham
-4.9303	Few
-5.884543	Ffortescue
-5.884543	Fiddles
-5.884543	Fiddlesticks
-4.9303	Field
-5.884543	Fields
-5.884543	Fierce
-5.185573	Fifteen
-4.770599	Fifth
-5.185573	Fifties
-5.185573	Fifty
-5.884543	Fifty-seven
-5.884543	Fifty-two
-4.353064	Fig.
-5.884543	Figaro
-5.884543	Figger
-5.884543	Fight
-5.583513	Fighting
-5.884543	Fights
-5.106391	Figs.
-4.271759	Figure
-4.770599	Figures
-5.884543	Figurines
-5.884543	Fil
-5.282483	File
-5.884543	Filigreed
-5.884543	Filipino
-5.583513	Filippo
-5.884543	Filling
-5.884543	Film
-5.884543	Filmdom
-5.884543	Films
-5.583513	Final
-4.212445	Finally
-5.884543	Finance
-5.185573	Financial
-5.583513	Financing
-5.583513	Finberg
-5.407422	Find
-5.884543	Finders
-5.407422	Finding
-5.884543	Findings
-5.185573	Fine
-5.583513	Fing
-5.282483	Fink
-5.884543	Fink's
-5.884543	Finley
-5.583513	Finnegan
-5.884543	Finns
-5.884543	Finnsburg
-5.884543	Finot
-5.039445	Fire
-5.884543	Fires
-4.099213	First
-5.884543	First-Born
-5.282483	Fiscal
-5.583513	Fisher
-5.884543	Fishkill
-5.583513	Fisk
-5.185573	Fiske
-5.884543	Fists
-5.884543	Fit
-5.282483	Fitzgerald
-5.884543	Fitzroy
-4.605789	Five
-5.106391	Fixed
-5.884543	Flagler's
-5.583513	Flanders
-5.884543	Flanked
-5.039445	Flannagan
-5.407422	Flannagans
-5.884543	Flannagans'
-5.884543	Flat
-5.884543	Flatiron
-5.884543	Flatness
-5.884543	Flea
-5.407422	Fleet
-5.884543	Fleet's
-5.583513	Fleischman
-5.407422	Fleischmanns
-5.583513	Flem
-5.884543	Fleming
-5.884543	Flemings
-5.185573	Flemish
-5.106391	Fletcher
-5.884543	Flexural
-5.884543	Flies
-5.884543	Flight
-5.884543	Flocks
-5.884543	Floor
-5.884543	Flor
-5.884543	Floradora
-5.583513	Florence
-5.282483	Florentine
-5.039445	Florida
-5.407422	Flory
-5.884543	Flotilla
-5.884543	Flotte
-5.884543	Flotte's
-5.884543	Flowers
-5.884543	Floyd
-5.884543	Floyd's
-5.884543	Flugel
-5.884543	Flumenophobe
-5.884543	Fluorescence
-5.884543	Flushing
-5.884543	Flying
-5.884543	Flynn's
-5.884543	Foamed
-5.884543	Fogg
-5.583513	Foggy
-5.884543	Folded
-5.884543	Folding
-5.884543	Follow
-5.884543	Follow-up
-4.9303	Following
-5.884543	Follows
-5.407422	Folly
-5.884543	Folsom
-5.884543	Fonds
-5.884543	Fontainebleau
-5.185573	Food
-5.884543	Foods
-5.884543	Fooled
-5.583513	Foot
-3.297956	For
-4.981453	Forbes
-4.805361	Force
-5.583513	Forced
-4.504332	Forces
-4.708451	Ford
-5.884543	Forebearing
-5.106391	Foreign
-5.583513	Foreigners
-5.106391	Forensic
-5.282483	Forerunner
-4.654094	Forest
-4.805361	Forests
-5.884543	Forever
-5.185573	Forge
-5.583513	Forget
-5.583513	Forgive
-5.884543	Forgot
-5.884543	Forked
-4.654094	Form
-5.282483	Format
-5.884543	Formerly
-5.583513	Forrest
-5.884543	Forsan
-5.884543	Forster's
-5.185573	Forsythe
-4.9303	Fort
-5.884543	Forte
-5.583513	Fortescue
-5.884543	Forties
-5.583513	Fortman
-4.9303	Fortunately
-5.583513	Fortune
-5.583513	Forty
-5.884543	Forty-five
-5.884543	Forty-nine
-5.884543	Forty-seven
-5.884543	Forty-six
-5.884543	Forum
-4.884543	Fosdick
-5.407422	Fosdick's
-5.407422	Foss
-4.981453	Foster
-5.884543	Foster's
-5.884543	Fosterite
-5.884543	Fosterites
-5.884543	Fought
-4.884543	Foundation
-4.805361	Foundation's
-5.884543	Founded
-5.407422	Founders
-5.185573	Founding
-5.884543	Foundry
-4.654094	Four
-5.884543	Fourteen
-5.884543	Fourteenth
-4.884543	Fourth
-5.583513	Fowler
-5.407422	Fox
-5.407422	Fraction
-5.884543	Fractions
-5.884543	Fragment
-5.884543	Frail
-5.282483	Fran
-5.884543	Fran's
-4.271759	France
-5.583513	France's
-5.884543	France-Germany
-5.884543	Frances
-5.039445	Francesca
-5.884543	Francesca's
-5.884543	Francesco
-5.282483	Francie
-5.884543	Francie's
-4.981453	Francis
-4.654094	Francisco
-5.884543	Francisco's
-5.884543	Franco-German
-5.884543	Franco-Irishman
-5.884543	Francoisette
-4.680423	Frank
-5.039445	Frankfurt
-4.981453	Frankfurter
-5.583513	Frankfurter's
-4.805361	Frankie
-4.805361	Franklin
-5.884543	Frankly
-5.583513	Franz
-5.407422	Frayne
-5.583513	Frayne's
-4.562324	Fred
-5.583513	Fred's
-5.884543	Freddie
-4.583513	Freddy
-5.282483	Freddy's
-4.884543	Frederick
-5.884543	Frederik
-5.884543	Fredrico
-5.884543	Fredrik
-5.884543	Fredrikshall
-4.884543	Free
-5.884543	Free-Will
-5.583513	Freed
-5.583513	Freedom
-5.407422	Freeman
-5.884543	Freinkel
-4.064999	French
-5.884543	French-Canadians
-5.039445	Frenchman
-5.884543	Frenchman's
-5.884543	Frenchmen
-5.407422	Frequently
-5.407422	Fresh
-5.407422	Fresnel
-5.106391	Freud
-5.884543	Freud's
-5.583513	Freudian
-5.407422	Freya
-5.884543	Friars
-5.884543	Frick
-4.84315	Friday
-5.407422	Fridays
-5.583513	Friedenwald
-5.884543	Friedman
-5.884543	Friedrich
-5.185573	Friend
-5.583513	Friends
-5.884543	Friends'
-5.583513	Frisco
-5.884543	Frist
-5.106391	Fritzie
-5.884543	Fritzie's
-5.884543	Frohock
-5.884543	Froissart
-3.871706	From
-4.708451	Fromm
-4.708451	Fromm's
-5.884543	Frondel
-5.407422	Front
-5.884543	Frosts
-5.884543	Frowning
-5.884543	Frozen
-5.583513	Fruit
-5.884543	Fuchs
-5.884543	Fuck
-5.039445	Fudo
-5.583513	Fudo's
-5.407422	Fudomae
-5.884543	Fuhrer
-5.583513	Fujimoto
-5.884543	Fulbright
-5.407422	Fulke
-5.407422	Full
-5.407422	Fulton
-5.884543	Fuming
-5.884543	Fun
-5.884543	Functionalism
-5.884543	Functionally
-5.884543	Functions
-5.106391	Fund
-5.884543	Fundamental
-5.282483	Funds
-5.583513	Funeral
-5.282483	Funk
-5.583513	Funny
-5.583513	Funston
-5.884543	Furies
-5.884543	Furiouser
-5.884543	Furnaces
-5.583513	Furniture
-4.738415	Further
-4.437385	Furthermore
-5.884543	Fuss
-5.884543	Futotsu
-5.039445	Future
-5.884543	Fuzzy
-4.805361	G
-4.738415	G.
-5.884543	G.B.S.
-5.884543	G.O.P.
-5.106391	GNP
-5.583513	Ga.
-5.884543	Gabler
-5.884543	Gables
-4.805361	Gabriel
-5.185573	Gabriel's
-5.884543	Gabrielle
-5.583513	Gagarin
-5.407422	Gaieties
-5.884543	Gain
-5.884543	Gaines
-5.884543	Galahad
-5.884543	Galantuomo
-5.884543	Galapagos
-5.884543	Galaxy
-5.884543	Galen
-5.884543	Gallant
-5.407422	Gallery
-5.884543	Gallet
-5.407422	Galli
-5.884543	Gallium
-5.884543	Galt
-5.884543	Galway
-5.884543	Ganado
-5.884543	Ganessa
-5.884543	Ganges
-5.106391	Gansevoort
-5.185573	Gantry
-5.185573	Gap
-5.583513	Gar-Dene
-5.583513	Garcia
-5.185573	Gardens
-5.407422	Gardner
-5.583513	Gargery
-5.884543	Gargery's
-4.770599	Garibaldi
-4.981453	Garibaldi's
-5.884543	Garine
-5.884543	Garments
-5.884543	Garnett
-5.884543	Garrard's
-5.884543	Garrick
-5.884543	Garrisonian
-5.282483	Garry
-5.884543	Garstung
-4.738415	Garth
-5.185573	Garth's
-5.583513	Garvier
-5.583513	Gas
-5.407422	Gascony
-5.884543	Gasoline
-5.884543	Gaspard
-5.884543	Gaspee
-5.884543	Gasse
-5.884543	Gasset
-5.884543	Gaston
-5.884543	Gate
-5.583513	Gates
-5.884543	Gather
-5.884543	Gathering
-5.884543	Gatsby
-5.884543	Gaul
-5.884543	Gauleiter
-5.884543	Gaulle
-5.884543	Gaunt
-5.884543	Gauntley
-5.583513	Gaussian
-5.884543	Gautier
-5.884543	Gaveston
-4.770599	Gavin
-4.981453	Gavin's
-5.884543	Gawdamighty
-5.884543	Gaylor
-5.884543	Gaylor's
-5.106391	Gazette
-5.884543	Gazing
-5.884543	Geatish
-5.884543	Gee
-5.039445	Geely
-5.884543	Geely's
-5.884543	Geiger
-5.884543	Gel
-5.884543	Gelly
-5.884543	Gemeinschaft
-5.884543	Gen.
-3.777333	General
-5.407422	General's
-5.407422	Generale
-5.282483	Generally
-5.583513	Generation
-5.407422	Geneva
-5.407422	Gentile
-5.185573	Gentile-Jewish
-5.884543	Gentiles
-5.583513	Gentleman
-5.884543	Gentlemen
-5.884543	Geocentricism
-5.185573	Geological
-5.583513	Geology
-4.680423	Geometric
-4.009481	George
-5.407422	George's
-5.407422	George-Barden
-5.884543	Georgetown's
-4.981453	Georgia
-5.884543	Georgian
-5.884543	Georgians
-5.884543	Geraldine
-4.316341	German
-5.884543	German's
-5.884543	German-language
-4.9303	Germanic
-5.884543	Germanized
-5.884543	Germano-Slavic
-4.605789	Germans
-5.583513	Germantown
-4.340475	Germany
-5.884543	Gerome
-5.282483	Gerry
-5.884543	Gershwin
-5.884543	Gerstacker
-5.185573	Gertrude
-5.884543	Gesamtkunstwerke
-5.884543	Gestapo
-4.486603	Get
-5.282483	Getting
-5.884543	Gettysburg
-5.884543	Ghent
-5.884543	Ghiberti
-5.583513	Ghoreyeb
-5.884543	Ghost
-5.583513	Gianicolo
-5.884543	Giaour
-5.583513	Gibault
-5.884543	Gibbon
-5.039445	Gibbs
-5.039445	Gibby
-5.583513	Gibson
-5.884543	Gide
-5.583513	Gilbert
-4.680423	Gilborn
-5.407422	Gilborn's
-5.884543	Gildas
-5.884543	Giles
-5.884543	Gilkson
-5.884543	Gill
-5.407422	Gillespie
-5.884543	Gilmore
-5.884543	Gilroy
-5.884543	Ginsberg's
-5.583513	Girl
-5.884543	Girls
-5.884543	Girls'
-5.884543	Gisele
-5.583513	Giselle
-5.884543	Gisors
-5.884543	Git
-5.884543	Giuseppe
-5.106391	Give
-5.583513	Given
-5.583513	Giving
-5.583513	Glad
-5.106391	Gladdy
-5.583513	Gladdy's
-5.583513	Gladius
-5.884543	Glance
-5.583513	Glasgow
-5.884543	Glass
-5.884543	Glayre
-5.583513	Gleason
-5.583513	Glee
-5.884543	Glendale
-4.770599	Glendora
-5.884543	Glendora's
-5.282483	Glenn
-5.407422	Globocnik
-5.884543	Globocnik's
-5.884543	Glocester
-5.884543	Gloom
-5.884543	Gloomy
-5.583513	Glory
-5.106391	Gloucester
-5.884543	Gloves
-5.884543	Glowering
-5.884543	Glycerinated
-4.654094	Go
-5.583513	Goals
-3.754209	God
-4.583513	God's
-5.884543	God-curst
-5.884543	God-forsaken
-5.583513	God-given
-5.884543	Goddammit
-5.282483	Goddamn
-5.884543	Godfrey
-5.185573	Godot
-5.884543	Godunov
-5.407422	Godwin
-5.407422	Goethe
-5.884543	Goethe's
-5.884543	Gog
-5.884543	Gogo
-5.884543	Gogol
-5.282483	Going
-5.583513	Gold
-5.282483	Golden
-5.282483	Golf
-5.884543	Golly
-5.884543	Gompachi
-5.282483	Gone
-5.884543	Gonna
-4.9303	Gonzales
-5.583513	Gonzalez
-4.504332	Good
-5.884543	Good-by
-5.583513	Good-bye
-5.884543	Goodbye
-5.884543	Goodman
-5.583513	Goodwin
-5.884543	Goody
-5.884543	Goolick
-5.583513	Goose
-5.039445	Gorboduc
-5.583513	Gord
-5.282483	Gordon
-5.884543	Gordon's
-5.884543	Gore
-5.884543	Gorshek
-4.379393	Gorton
-5.407422	Gorton's
-5.583513	Gortonists
-5.407422	Gosh
-5.583513	Gospel
-5.884543	Gospelers
-5.884543	Gospels
-5.884543	Gossip
-5.185573	Gosson
-5.884543	Gosson's
-4.981453	Got
-5.407422	Gothic
-5.884543	Gothicism
-5.884543	Gott
-5.884543	Gotterdammerung
-5.884543	Gouge
-5.884543	Gouvernement
-3.84315	Government
-5.039445	Government's
-5.884543	Government-owned
-4.9303	Governments
-4.54212	Governor
-5.583513	Governor's
-5.884543	Governor-General
-5.884543	Goyette
-5.282483	Grab
-5.884543	Grabbing
-5.185573	Grabski
-5.884543	Grabski's
-5.407422	Grace
-5.884543	Graceful
-5.583513	Gracias
-5.884543	Gracie
-5.884543	Gracie's
-5.185573	Gradually
-5.884543	Graduates
-5.884543	Graff
-5.185573	Grafin
-5.884543	Grafin's
-5.282483	Grafton
-4.981453	Graham
-5.884543	Grail
-5.884543	Gram
-5.884543	Gram-negative
-4.9303	Gran
-5.185573	Grand
-5.583513	Grande-Bretagne
-4.84315	Grandma
-5.407422	Grandma's
-5.884543	Grandmother
-5.884543	Grandmothers'
-5.583513	Grandson
-5.106391	Granny
-5.884543	Granny's
-5.407422	Grant
-5.583513	Granted
-5.884543	Granther
-5.884543	Granville
-5.884543	Graph
-5.884543	Graphic
-5.583513	Gras
-5.884543	Grass
-5.185573	Grasslands
-5.884543	Grassy
-4.981453	Gratt
-5.884543	Graves
-5.583513	Graves'
-5.884543	Gravity
-4.84315	Gray
-5.282483	Grazie
-5.884543	Gre't
-5.884543	Gre.
-5.884543	Greases
-5.583513	Greasy
-4.469569	Great
-5.884543	Great's
-5.884543	Greater
-5.407422	Greatest
-5.884543	Greatness
-5.407422	Grecian
-4.84315	Greece
-5.884543	Greece's
-4.212445	Greek
-5.407422	Greeks
-4.805361	Green
-5.884543	Green's
-5.039445	Greene
-5.583513	Greenland
-5.884543	Greens
-5.185573	Greenwich
-5.884543	Greer
-5.884543	Greetings
-4.469569	Greg
-4.884543	Greg's
-5.583513	Gregg
-5.583513	Gregorius
-5.407422	Gregory
-5.884543	Gregory's
-5.884543	Grenville
-5.884543	Gresham
-5.884543	Grev.
-5.884543	Grevile
-4.738415	Greville
-5.282483	Greville's
-5.884543	Grevyles
-5.185573	Grey
-5.884543	Grey's
-5.884543	Gridley
-5.884543	Griffin
-4.770599	Griffith
-5.884543	Griffith's
-5.407422	Griggs
-5.583513	Grigori
-5.407422	Grigori's
-5.185573	Grigorss
-5.884543	Grimesby
-5.884543	Grimm
-5.884543	Grimm's
-5.884543	Grindlay
-5.884543	Grinned
-5.884543	Gris
-5.884543	Griston
-5.583513	Grits
-5.282483	Groggins
-5.884543	Groot
-4.316341	Gross
-5.884543	Gross's
-4.9303	Grosse
-5.583513	Grosvenor
-5.282483	Groth
-5.282483	Groth's
-5.884543	Ground
-5.884543	Grounds
-5.282483	Group
-5.884543	Grove
-5.583513	Growing
-5.583513	Growth
-5.407422	Grubb
-5.884543	Grudges
-5.884543	Gruller
-5.884543	Grumbled
-5.884543	Grunnfeu
-4.84315	Guam
-5.407422	Guard
-5.884543	Guardia
-5.407422	Guardian
-5.884543	Guardini
-5.407422	Guardino
-5.884543	Guardino's
-5.884543	Guatemala
-5.583513	Guerrillas
-5.282483	Guess
-5.282483	Guest
-5.884543	Guests
-5.884543	Guggenheim
-5.884543	Guiana
-5.884543	Guidance
-5.884543	Guiftes
-5.282483	Guild
-5.884543	Guilford
-5.407422	Guilford-Martin
-5.884543	Guillaume
-5.884543	Guimet
-5.884543	Guinea
-5.583513	Guitar
-4.981453	Gulf
-5.884543	Gullah
-5.884543	Gulliver's
-4.605789	Gun
-5.884543	Gun's
-5.583513	Gunnar
-5.106391	Gunny
-5.583513	Guns
-5.884543	Gurla
-5.884543	Gustaf
-5.884543	Gustavus
-5.583513	Gute
-5.884543	Guthrie
-5.884543	Guthrie's
-5.884543	Guttman-type
-5.884543	Guy
-5.884543	Gwen
-5.884543	Gymnasium
-5.106391	Gyp
-5.884543	Gyp'll
-5.583513	Gyrocompass
-4.770599	H
-5.884543	H'all
-4.504332	H.
-5.884543	H.L.
-5.583513	H.M.
-5.583513	H.M.S.
-5.884543	H.P.R.
-5.884543	H.W.
-5.884543	HBO
-5.884543	Habla
-5.884543	Habsburg
-5.884543	Hackettstown
-4.605789	Had
-5.884543	Hadn't
-5.583513	Hafiz
-4.9303	Hague
-5.583513	Haijac
-5.884543	Hail
-5.884543	Hair
-5.884543	Haitian
-5.884543	Hajime
-4.504332	Hal
-5.884543	Hal's
-5.884543	Hale
-5.185573	Half
-5.583513	Halfway
-4.680423	Hall
-5.884543	Hall-Mills
-5.884543	Halleck
-5.884543	Hallelujah
-5.884543	Halloween
-5.884543	Halma
-5.583513	Hals
-5.884543	Halting
-5.407422	Ham
-4.738415	Hamilton
-5.407422	Hamilton's
-5.884543	Hamilton-oriented
-5.884543	Hamiltonian
-5.884543	Hamiltonians
-5.282483	Hamlet
-5.282483	Hamm
-5.884543	Hamm's
-5.185573	Hammarskjold
-5.884543	Hammarskjold's
-5.583513	Hammer
-5.884543	Hammett
-5.583513	Hammett's
-5.282483	Hampshire
-4.981453	Hamrick
-5.583513	Hamrick's
-5.884543	Hancock
-4.84315	Hand
-5.884543	Handbook
-5.884543	Handing
-5.884543	Handle
-4.680423	Handley
-5.407422	Hands
-5.884543	Hands-off
-5.583513	Handsome
-5.884543	Handsomest
-4.605789	Haney
-5.583513	Haney's
-4.680423	Hanford
-5.884543	Hang
-5.583513	Hanging
-5.884543	Hangman's
-4.805361	Hank
-4.9303	Hanover
-5.106391	Hanoverian
-4.340475	Hans
-5.884543	Hanukkah
-5.884543	Hap
-5.583513	Hapgood
-5.407422	Happened
-5.884543	Happiness
-5.407422	Happy
-5.583513	Harbert
-5.039445	Harbor
-5.583513	Harbor's
-5.884543	Harbors
-5.583513	Harburg
-5.884543	Harburg's
-5.185573	Harcourt
-5.583513	Hard
-5.884543	Hard's
-5.884543	Hard-surface
-5.884543	Hardee's
-5.884543	Harding
-5.884543	Hardings
-5.282483	Hardly
-5.884543	Hardscrabble
-5.884543	Hardware
-5.884543	Hardwick
-5.884543	Hardwicke
-4.366029	Hardy
-4.708451	Hardy's
-5.884543	Harford
-5.185573	Harlem
-5.884543	Harley's
-4.9303	Harmony
-5.884543	Harmony's
-5.884543	Harnessing
-4.504332	Harold
-5.583513	Harper
-5.185573	Harper's
-5.583513	Harpers
-5.185573	Harriet
-5.884543	Harriet's
-4.654094	Harris
-5.884543	Harris'
-5.583513	Harris's
-5.884543	Harrison
-5.884543	Harro
-5.583513	Harrow
-5.884543	Harrows
-4.583513	Harry
-5.884543	Harry's
-5.407422	Hart
-5.884543	Hartford
-5.884543	Hartlib
-5.884543	Hartman
-5.884543	Haruo
-4.680423	Harvard
-5.884543	Harvest
-5.884543	Harvester
-5.884543	Harvey
-5.407422	Harvie
-5.282483	Has
-5.583513	Haskell
-5.583513	Hasseltine
-5.884543	Hastening
-5.884543	Hastily
-5.884543	Hastings
-5.884543	Hatching
-5.884543	Hathaway
-5.884543	Hatless
-5.884543	Hatred
-5.884543	Hattie
-5.884543	Hattiesburg
-5.884543	Hauling
-5.884543	Haumd
-5.884543	Haumd's
-5.884543	Haupts'
-5.884543	Hausman
-5.884543	Hausman's
-4.583513	Have
-5.884543	Haven
-5.407422	Haven't
-5.583513	Haverfield
-5.884543	Haverhill
-4.738415	Having
-5.407422	Havisham
-5.884543	Havisham's
-4.805361	Hawaii
-5.884543	Hawaiian
-5.884543	Hawaiian-Americans
-5.039445	Hawk
-5.583513	Hawkins
-5.884543	Hawkins'
-5.884543	Hawkinses
-5.884543	Hawksworth
-5.407422	Hawthorne
-5.884543	Hay
-5.884543	Haydn
-5.884543	Haydon
-5.884543	Hayek
-5.884543	Haying
-5.282483	Hays
-5.884543	Hayter
-5.884543	Hazlitt
-2.510528	He
-4.54212	He'd
-4.884543	He'll
-4.14418	He's
-5.884543	Head
-5.884543	Heading
-5.185573	Headquarters
-5.884543	Heads
-5.185573	Health
-5.583513	Hear
-5.039445	Heard
-5.884543	Hearing
-4.203301	Hearst
-5.106391	Hearst's
-5.583513	Heart
-5.282483	Heat
-5.884543	Heat's
-5.884543	Heather
-5.884543	Heatwole
-5.884543	Heave
-4.738415	Heaven
-5.884543	Heaven's
-5.583513	Heavenly
-5.884543	Heavy
-5.884543	Heavy-coated
-5.884543	Hebraic
-4.981453	Hebrew
-5.884543	Heckman
-5.884543	Hector's
-5.884543	Hedda
-5.884543	Heffer
-5.884543	Hegel
-5.884543	Hegel's
-5.407422	Hegelian
-5.884543	Heidegger
-5.583513	Heidegger's
-5.884543	Heidelberg
-5.106391	Heidenstam
-5.407422	Heidenstam's
-5.884543	Heigh-ho
-5.884543	Height
-5.282483	Heights
-5.884543	Heine
-5.884543	Heinzes
-5.039445	Heiser
-5.583513	Held
-5.282483	Helen
-5.884543	Helena
-4.62927	Helion
-5.583513	Helion's
-4.583513	Hell
-5.884543	Hell's
-5.106391	Hellenic
-5.884543	Hellfire
-5.106391	Hello
-5.884543	Helm
-5.185573	Help
-5.884543	Helpless
-5.884543	Helps
-4.469569	Helva
-4.981453	Helva's
-5.884543	Hemenway's
-5.583513	Hemingway
-5.884543	Hemingway's
-5.583513	Hemisphere
-5.583513	Hempel
-4.486603	Hence
-5.884543	Hendry
-5.884543	Henh
-5.583513	Henley's
-5.583513	Henri
-4.271759	Henrietta
-5.583513	Henrietta's
-5.884543	Henrik
-4.32824	Henry
-5.884543	Heorot
-3.831464	Her
-5.884543	Heraclitus
-4.9303	Herald
-5.583513	Herb
-5.407422	Herberet
-5.884543	Herberet's
-5.106391	Herbert
-5.884543	Hercule
-5.583513	Hercules
-3.945024	Here
-5.185573	Here's
-5.884543	Heresy
-5.884543	Heretic
-5.884543	Heretofore
-5.185573	Herford
-5.884543	Herford's
-5.884543	Hergesheimer
-5.407422	Heritage
-5.185573	Herman
-5.106391	Hernandez
-5.884543	Hero
-5.884543	Hero's
-5.884543	Heroic
-5.282483	Herold
-5.884543	Heron
-5.106391	Herr
-5.583513	Herrick
-5.407422	Herry
-5.884543	Herry's
-5.884543	Hershel
-5.884543	Hershey's
-5.884543	Herzfeld
-5.106391	Hesiometer
-4.84315	Hesperus
-5.884543	Hesperus'
-5.583513	Hessians
-4.805361	Hetman
-4.981453	Hetman's
-5.185573	Hettie
-5.583513	Hetty
-5.884543	Hetty's
-5.884543	Heusen
-5.583513	Heuvelmans
-5.884543	Hewlitt
-5.884543	Hexen
-4.884543	Hey
-5.884543	Heydrich
-5.282483	Heywood
-5.039445	Hez
-5.185573	Hi
-5.884543	Hidden
-5.884543	Hideous
-5.884543	Hiding
-5.583513	Hieronymus
-4.981453	High
-5.583513	High-gain
-5.884543	High-level
-5.884543	High-tension
-5.282483	Higher
-5.884543	Highest
-5.884543	Highfield
-5.282483	Highlands
-5.583513	Highway
-4.805361	Hill
-5.884543	Hillel
-5.583513	Hillman
-5.884543	Hillman's
-5.407422	Hills
-4.9303	Him
-5.884543	Himalayas
-5.884543	Himmler
-5.884543	Himself
-5.884543	Hindoo
-5.583513	Hindu
-5.884543	Hinkle
-4.770599	Hino
-5.583513	Hino's
-5.884543	Hints
-5.583513	Hiram
-5.884543	Hired
-5.106391	Hirey
-5.884543	Hirey's
-5.282483	Hiroshima
-3.331875	His
-5.407422	Histochemistry
-5.884543	Historians
-5.884543	Historical
-5.282483	Historically
-5.583513	Histories
-4.708451	History
-5.884543	Hit
-5.583513	Hitchcock
-5.884543	Hitching
-5.583513	Hitler
-5.583513	Hitler's
-5.884543	Hitlers
-5.884543	Hmm
-5.884543	Hoa-whup
-4.562324	Hoag
-5.583513	Hoag's
-5.884543	Hoagy
-5.884543	Hobbes
-5.884543	Hobbes'
-5.884543	Hobday
-5.407422	Hodges
-5.407422	Hodgkin
-5.884543	Hoe-Down
-5.407422	Hoeve
-5.884543	Hoffer
-5.583513	Hoffman
-4.981453	Hogan
-5.884543	Hogan's
-5.884543	Hoge's
-4.9303	Hohlbein
-5.407422	Hoijer
-5.407422	Hoijer's
-5.884543	Hokan
-5.106391	Hold
-4.9303	Holden
-5.583513	Holden's
-5.884543	Holderlin
-5.583513	Holding
-5.583513	Hole
-5.884543	Holies
-5.106391	Holland
-5.884543	Holley
-5.884543	Hollingshead
-5.884543	Holloway
-4.9303	Hollywood
-5.884543	Hollywood's
-4.469569	Holmes
-5.583513	Holmes'
-5.884543	Holty
-4.770599	Holy
-5.039445	Home
-5.583513	Homemakers
-5.282483	Homer
-5.884543	Homer's
-4.708451	Homeric
-5.884543	Homerists
-5.884543	Homes
-5.884543	Homestead
-5.185573	Homicide
-5.884543	Homo
-5.884543	Homozygous
-5.282483	Hon.
-5.884543	Honan
-5.884543	Hondo
-5.583513	Honest
-5.884543	Honey
-5.407422	Hong
-5.583513	Honor
-5.407422	Honorable
-5.282483	Honotassa
-5.884543	Honshu
-5.884543	Hood
-5.884543	Hooghli
-5.884543	Hoogli
-5.884543	Hook
-5.583513	Hooper
-5.884543	Hooray
-5.884543	Hoot
-5.583513	Hoover
-4.84315	Hope
-5.884543	Hope's
-5.185573	Hopkins
-5.884543	Hopkins'
-5.282483	Horace
-5.884543	Horace's
-5.884543	Horatio's
-4.981453	Horn
-5.884543	Horne's
-5.583513	Horowitz
-5.884543	Horror
-5.185573	Horse
-5.583513	Horsely
-5.884543	Hospice
-4.84315	Hospital
-5.884543	Hostaria
-5.884543	Hostile
-5.106391	Hot
-4.708451	Hotel
-5.583513	Hotham
-5.884543	Houdini
-5.884543	Houghton
-5.884543	Houghton's
-5.407422	Hound
-5.884543	Hounds
-4.052034	House
-5.884543	Housekeeping
-5.583513	Houses
-5.583513	Housing
-5.884543	Housman
-5.583513	Housman's
-5.583513	Houston
-5.884543	Hovdingar
-3.754209	How
-5.583513	How'd
-4.981453	How's
-5.884543	How-2
-4.680423	Howard
-5.884543	Howard's
